{"learner":{"attributes":{"scikit_learn":"{\"_estimator_type\": \"classifier\"}"},"feature_names":["num__age","num__trestbps","num__chol","num__thalach","num__oldpeak","num__ca","cat__cp_1.0","cat__cp_2.0","cat__cp_3.0","cat__cp_4.0","cat__restecg_0.0","cat__restecg_1.0","cat__restecg_2.0","cat__slope_1.0","cat__slope_2.0","cat__slope_3.0","cat__thal_3.0","cat__thal_6.0","cat__thal_7.0","remainder__sex","remainder__fbs","remainder__exang"],"feature_types":["float","float","float","float","float","float","float","float","float","float","float","float","float","float","float","float","float","float","float","float","float","float"],"gradient_booster":{"model":{"cats":{"enc":[],"feature_segments":[],"sorted_idx":[]},"gbtree_model_param":{"num_parallel_tree":"1","num_trees":"1000"},"iteration_indptr":[0,1,2,3,4,5,6,7,8,9,10,11,12,13,14,15,16,17,18,19,20,21,22,23,24,25,26,27,28,29,30,31,32,33,34,35,36,37,38,39,40,41,42,43,44,45,46,47,48,49,50,51,52,53,54,55,56,57,58,59,60,61,62,63,64,65,66,67,68,69,70,71,72,73,74,75,76,77,78,79,80,81,82,83,84,85,86,87,88,89,90,91,92,93,94,95,96,97,98,99,100,101,102,103,104,105,106,107,108,109,110,111,112,113,114,115,116,117,118,119,120,121,122,123,124,125,126,127,128,129,130,131,132,133,134,135,136,137,138,139,140,141,142,143,144,145,146,147,148,149,150,151,152,153,154,155,156,157,158,159,160,161,162,163,164,165,166,167,168,169,170,171,172,173,174,175,176,177,178,179,180,181,182,183,184,185,186,187,188,189,190,191,192,193,194,195,196,197,198,199,200,201,202,203,204,205,206,207,208,209,210,211,212,213,214,215,216,217,218,219,220,221,222,223,224,225,226,227,228,229,230,231,232,233,234,235,236,237,238,239,240,241,242,243,244,245,246,247,248,249,250,251,252,253,254,255,256,257,258,259,260,261,262,263,264,265,266,267,268,269,270,271,272,273,274,275,276,277,278,279,280,281,282,283,284,285,286,287,288,289,290,291,292,293,294,295,296,297,298,299,300,301,302,303,304,305,306,307,308,309,310,311,312,313,314,315,316,317,318,319,320,321,322,323,324,325,326,327,328,329,330,331,332,333,334,335,336,337,338,339,340,341,342,343,344,345,346,347,348,349,350,351,352,353,354,355,356,357,358,359,360,361,362,363,364,365,366,367,368,369,370,371,372,373,374,375,376,377,378,379,380,381,382,383,384,385,386,387,388,389,390,391,392,393,394,395,396,397,398,399,400,401,402,403,404,405,406,407,408,409,410,411,412,413,414,415,416,417,418,419,420,421,422,423,424,425,426,427,428,429,430,431,432,433,434,435,436,437,438,439,440,441,442,443,444,445,446,447,448,449,450,451,452,453,454,455,456,457,458,459,460,461,462,463,464,465,466,467,468,469,470,471,472,473,474,475,476,477,478,479,480,481,482,483,484,485,486,487,488,489,490,491,492,493,494,495,496,497,498,499,500,501,502,503,504,505,506,507,508,509,510,511,512,513,514,515,516,517,518,519,520,521,522,523,524,525,526,527,528,529,530,531,532,533,534,535,536,537,538,539,540,541,542,543,544,545,546,547,548,549,550,551,552,553,554,555,556,557,558,559,560,561,562,563,564,565,566,567,568,569,570,571,572,573,574,575,576,577,578,579,580,581,582,583,584,585,586,587,588,589,590,591,592,593,594,595,596,597,598,599,600,601,602,603,604,605,606,607,608,609,610,611,612,613,614,615,616,617,618,619,620,621,622,623,624,625,626,627,628,629,630,631,632,633,634,635,636,637,638,639,640,641,642,643,644,645,646,647,648,649,650,651,652,653,654,655,656,657,658,659,660,661,662,663,664,665,666,667,668,669,670,671,672,673,674,675,676,677,678,679,680,681,682,683,684,685,686,687,688,689,690,691,692,693,694,695,696,697,698,699,700,701,702,703,704,705,706,707,708,709,710,711,712,713,714,715,716,717,718,719,720,721,722,723,724,725,726,727,728,729,730,731,732,733,734,735,736,737,738,739,740,741,742,743,744,745,746,747,748,749,750,751,752,753,754,755,756,757,758,759,760,761,762,763,764,765,766,767,768,769,770,771,772,773,774,775,776,777,778,779,780,781,782,783,784,785,786,787,788,789,790,791,792,793,794,795,796,797,798,799,800,801,802,803,804,805,806,807,808,809,810,811,812,813,814,815,816,817,818,819,820,821,822,823,824,825,826,827,828,829,830,831,832,833,834,835,836,837,838,839,840,841,842,843,844,845,846,847,848,849,850,851,852,853,854,855,856,857,858,859,860,861,862,863,864,865,866,867,868,869,870,871,872,873,874,875,876,877,878,879,880,881,882,883,884,885,886,887,888,889,890,891,892,893,894,895,896,897,898,899,900,901,902,903,904,905,906,907,908,909,910,911,912,913,914,915,916,917,918,919,920,921,922,923,924,925,926,927,928,929,930,931,932,933,934,935,936,937,938,939,940,941,942,943,944,945,946,947,948,949,950,951,952,953,954,955,956,957,958,959,960,961,962,963,964,965,966,967,968,969,970,971,972,973,974,975,976,977,978,979,980,981,982,983,984,985,986,987,988,989,990,991,992,993,994,995,996,997,998,999,1000],"tree_info":[0,0,0,0,0,0,0,0,0,0,0,0,0,0,0,0,0,0,0,0,0,0,0,0,0,0,0,0,0,0,0,0,0,0,0,0,0,0,0,0,0,0,0,0,0,0,0,0,0,0,0,0,0,0,0,0,0,0,0,0,0,0,0,0,0,0,0,0,0,0,0,0,0,0,0,0,0,0,0,0,0,0,0,0,0,0,0,0,0,0,0,0,0,0,0,0,0,0,0,0,0,0,0,0,0,0,0,0,0,0,0,0,0,0,0,0,0,0,0,0,0,0,0,0,0,0,0,0,0,0,0,0,0,0,0,0,0,0,0,0,0,0,0,0,0,0,0,0,0,0,0,0,0,0,0,0,0,0,0,0,0,0,0,0,0,0,0,0,0,0,0,0,0,0,0,0,0,0,0,0,0,0,0,0,0,0,0,0,0,0,0,0,0,0,0,0,0,0,0,0,0,0,0,0,0,0,0,0,0,0,0,0,0,0,0,0,0,0,0,0,0,0,0,0,0,0,0,0,0,0,0,0,0,0,0,0,0,0,0,0,0,0,0,0,0,0,0,0,0,0,0,0,0,0,0,0,0,0,0,0,0,0,0,0,0,0,0,0,0,0,0,0,0,0,0,0,0,0,0,0,0,0,0,0,0,0,0,0,0,0,0,0,0,0,0,0,0,0,0,0,0,0,0,0,0,0,0,0,0,0,0,0,0,0,0,0,0,0,0,0,0,0,0,0,0,0,0,0,0,0,0,0,0,0,0,0,0,0,0,0,0,0,0,0,0,0,0,0,0,0,0,0,0,0,0,0,0,0,0,0,0,0,0,0,0,0,0,0,0,0,0,0,0,0,0,0,0,0,0,0,0,0,0,0,0,0,0,0,0,0,0,0,0,0,0,0,0,0,0,0,0,0,0,0,0,0,0,0,0,0,0,0,0,0,0,0,0,0,0,0,0,0,0,0,0,0,0,0,0,0,0,0,0,0,0,0,0,0,0,0,0,0,0,0,0,0,0,0,0,0,0,0,0,0,0,0,0,0,0,0,0,0,0,0,0,0,0,0,0,0,0,0,0,0,0,0,0,0,0,0,0,0,0,0,0,0,0,0,0,0,0,0,0,0,0,0,0,0,0,0,0,0,0,0,0,0,0,0,0,0,0,0,0,0,0,0,0,0,0,0,0,0,0,0,0,0,0,0,0,0,0,0,0,0,0,0,0,0,0,0,0,0,0,0,0,0,0,0,0,0,0,0,0,0,0,0,0,0,0,0,0,0,0,0,0,0,0,0,0,0,0,0,0,0,0,0,0,0,0,0,0,0,0,0,0,0,0,0,0,0,0,0,0,0,0,0,0,0,0,0,0,0,0,0,0,0,0,0,0,0,0,0,0,0,0,0,0,0,0,0,0,0,0,0,0,0,0,0,0,0,0,0,0,0,0,0,0,0,0,0,0,0,0,0,0,0,0,0,0,0,0,0,0,0,0,0,0,0,0,0,0,0,0,0,0,0,0,0,0,0,0,0,0,0,0,0,0,0,0,0,0,0,0,0,0,0,0,0,0,0,0,0,0,0,0,0,0,0,0,0,0,0,0,0,0,0,0,0,0,0,0,0,0,0,0,0,0,0,0,0,0,0,0,0,0,0,0,0,0,0,0,0,0,0,0,0,0,0,0,0,0,0,0,0,0,0,0,0,0,0,0,0,0,0,0,0,0,0,0,0,0,0,0,0,0,0,0,0,0,0,0,0,0,0,0,0,0,0,0,0,0,0,0,0,0,0,0,0,0,0,0,0,0,0,0,0,0,0,0,0,0,0,0,0,0,0,0,0,0,0,0,0,0,0,0,0,0,0,0,0,0,0,0,0,0,0,0,0,0,0,0,0,0,0,0,0,0,0,0,0,0,0,0,0,0,0,0,0,0,0,0,0,0,0,0,0,0,0,0,0,0,0,0,0,0,0,0,0,0,0,0,0,0,0,0,0,0,0,0,0,0,0,0,0,0,0,0,0,0,0,0,0,0,0,0,0,0,0,0,0,0,0,0,0,0,0,0,0,0,0,0,0,0,0,0,0,0,0,0,0,0,0,0,0,0,0,0,0,0,0,0,0,0,0,0,0,0,0,0,0,0,0,0,0,0,0,0,0,0,0,0,0,0,0,0,0,0,0,0,0,0,0,0,0,0,0,0,0,0,0,0,0,0,0,0,0,0,0,0,0,0,0,0,0,0,0,0,0,0,0,0,0,0,0,0,0,0,0,0,0],"trees":[{"base_weights":[-6.339283E-8,-9.512909E-1,1.0213672E0,-1.3741726E0,-1.5803884E-1,6.25303E-2,5.529765E-1,-1.453788E0,-1.3386995E-1,-9.811612E-1,1.1859176E0,-8.686354E-1,1.1382498E0,-4.6287283E-1,-1.9866857E-1,-3.994613E-1,9.344869E-2,4.335667E-1,9.344869E-2,-3.920217E-1,8.5189946E-2,-9.177543E-2,5.0618356E-1],"categories":[],"categories_nodes":[],"categories_segments":[],"categories_sizes":[],"default_left":[0,0,0,0,0,0,0,0,0,0,0,0,0,0,0,0,0,0,0,0,0,0,0],"id":0,"left_children":[1,3,5,7,9,11,-1,13,-1,15,17,19,21,-1,-1,-1,-1,-1,-1,-1,-1,-1,-1],"loss_changes":[4.7562977E1,8.285078E0,1.848815E1,5.630512E-1,1.216327E1,1.2939398E1,0E0,1.266861E-2,0E0,3.4555507E0,5.088291E-1,3.8866973E0,5.248535E0,0E0,0E0,0E0,0E0,0E0,0E0,0E0,0E0,0E0,0E0],"parents":[2147483647,0,0,1,1,2,2,3,3,4,4,5,5,7,7,9,9,10,10,11,11,12,12],"right_children":[2,4,6,8,10,12,-1,14,-1,16,18,20,22,-1,-1,-1,-1,-1,-1,-1,-1,-1,-1],"split_conditions":[1E0,1E0,3.4940407E-1,1.3117933E0,3.4940407E-1,1E0,5.529765E-1,1E0,-1.3386995E-1,5.442416E-1,1E0,5.8001614E-1,-4.771063E-1,-4.6287283E-1,-1.9866857E-1,-3.994613E-1,9.344869E-2,4.335667E-1,9.344869E-2,-3.920217E-1,8.5189946E-2,-9.177543E-2,5.0618356E-1],"split_indices":[9,14,5,2,5,18,0,6,0,1,16,0,4,0,0,0,0,0,0,0,0,0,0],"split_type":[0,0,0,0,0,0,0,0,0,0,0,0,0,0,0,0,0,0,0,0,0,0,0],"sum_hessian":[4.6952377E1,2.4345676E1,2.26067E1,1.5402367E1,8.94331E0,1.0930712E1,1.1675988E1,1.366339E1,1.738977E0,5.7137814E0,3.2295287E0,5.962207E0,4.9685054E0,1.1427563E1,2.2358274E0,4.471655E0,1.2421263E0,1.9874022E0,1.2421263E0,4.22323E0,1.738977E0,1.4905517E0,3.477954E0],"tree_param":{"num_deleted":"0","num_feature":"22","num_nodes":"23","size_leaf_vector":"1"}},{"base_weights":[-3.9291317E-3,7.937142E-1,-7.29614E-1,-2.2190261E-1,1.238267E0,-1.0467417E0,-7.4905135E-2,-6.1769134E-1,4.588212E-1,1.3706807E0,-5.824557E-2,-1.2062494E0,-8.9537844E-2,4.6844378E-1,-3.4538633E-1,-3.154377E-1,-6.840342E-2,1.7647448E-1,3.5866283E-2,1.2541683E-1,4.4419435E-1,-1.3113937E0,-1.4108506E-2,-1.5461446E-1,1.1259626E-1,-2.3945165E-1,9.687085E-1,-1.401046E-1,1.0864007E-1,-1.1076432E-1,-4.117892E-1,1.0867857E-1,-2.0630302E-1,5.239999E-2,3.703851E-1],"categories":[],"categories_nodes":[],"categories_segments":[],"categories_sizes":[],"default_left":[0,0,0,0,0,0,0,0,0,0,0,0,0,0,0,0,0,0,0,0,0,0,0,0,0,0,0,0,0,0,0,0,0,0,0],"id":1,"left_children":[1,3,5,7,9,11,13,15,17,19,-1,21,23,25,-1,-1,27,-1,-1,-1,-1,29,-1,-1,-1,31,33,-1,-1,-1,-1,-1,-1,-1,-1],"loss_changes":[2.711572E1,1.0351464E1,5.013871E0,2.3425968E0,3.2393303E0,2.402956E0,5.8499985E0,1.181144E0,7.8255415E-2,8.971729E-1,0E0,1.646738E0,8.722765E-1,2.620641E0,0E0,0E0,7.509318E-1,0E0,0E0,0E0,0E0,2.325077E-1,0E0,0E0,0E0,1.2186382E0,6.606686E-1,0E0,0E0,0E0,0E0,0E0,0E0,0E0,0E0],"parents":[2147483647,0,0,1,1,2,2,3,3,4,4,5,5,6,6,7,7,8,8,9,9,11,11,12,12,13,13,16,16,21,21,25,25,26,26],"right_children":[2,4,6,8,10,12,14,16,18,20,-1,22,24,26,-1,-1,28,-1,-1,-1,-1,30,-1,-1,-1,32,34,-1,-1,-1,-1,-1,-1,-1,-1],"split_conditions":[1E0,-3.9215198E-1,3.4940407E-1,3.4940407E-1,8.570883E-1,5.442416E-1,1E0,3.20181E-1,1E0,-8.541242E-1,-5.824557E-2,9.128583E-1,-1.0196562E-1,1E0,-3.4538633E-1,-3.154377E-1,-7.0516944E-1,1.7647448E-1,3.5866283E-2,1.2541683E-1,4.4419435E-1,-1.2456666E0,-1.4108506E-2,-1.5461446E-1,1.1259626E-1,9.128583E-1,-3.0756304E-1,-1.401046E-1,1.0864007E-1,-1.1076432E-1,-4.117892E-1,1.0867857E-1,-2.0630302E-1,5.239999E-2,3.703851E-1],"split_indices":[16,4,5,5,3,1,8,3,21,1,0,0,2,19,0,0,2,0,0,0,0,1,0,0,0,0,0,0,0,0,0,0,0,0,0],"split_type":[0,0,0,0,0,0,0,0,0,0,0,0,0,0,0,0,0,0,0,0,0,0,0,0,0,0,0,0,0,0,0,0,0,0,0],"sum_hessian":[4.4844654E1,2.131849E1,2.3526163E1,6.6429563E0,1.4675533E1,1.5445762E1,8.080402E0,4.259171E0,2.3837852E0,1.34731655E1,1.2023677E0,1.3016519E1,2.4292428E0,5.7451143E0,2.3352876E0,1.8690095E0,2.3901615E0,1.1942934E0,1.1894917E0,1.8912512E0,1.1581915E1,1.1813712E1,1.2028066E0,1.2111025E0,1.2181402E0,2.5947647E0,3.1503499E0,1.1971005E0,1.1930611E0,1.1499573E0,1.0663754E1,1.1895949E0,1.4051697E0,1.2059809E0,1.944369E0],"tree_param":{"num_deleted":"0","num_feature":"22","num_nodes":"35","size_leaf_vector":"1"}},{"base_weights":[-1.0561222E-2,-6.701699E-1,6.8748814E-1,-1.0360068E0,-1.287188E-1,7.750308E-2,1.2067136E0,-9.3602605E-2,-1.1343087E0,-8.0212283E-1,5.436336E-1,-5.397011E-1,7.6770467E-1,4.02876E-1,5.0214267E-1,-7.9564236E-2,-3.728222E-1,4.8290882E-2,-3.4890175E-1,-1.462117E-1,3.746441E-1,-2.79902E-1,9.775605E-2,-4.9224492E-2,3.4055078E-1,-3.4940057E-2,2.5522342E-1,-2.8228283E-1,2.0352568E-1],"categories":[],"categories_nodes":[],"categories_segments":[],"categories_sizes":[],"default_left":[0,0,0,0,0,0,0,0,0,0,0,0,0,0,0,0,0,0,0,0,0,0,0,0,0,0,0,0,0],"id":2,"left_children":[1,3,5,7,9,11,13,-1,15,17,19,21,23,-1,25,-1,-1,-1,-1,27,-1,-1,-1,-1,-1,-1,-1,-1,-1],"loss_changes":[2.0054739E1,4.300993E0,6.6110144E0,5.8680534E-1,5.0399976E0,5.0160446E0,4.1646385E-1,0E0,7.313595E-1,2.09333E0,2.947785E0,2.4452758E0,2.0736866E0,0E0,8.4061295E-1,0E0,0E0,0E0,0E0,3.1081164E0,0E0,0E0,0E0,0E0,0E0,0E0,0E0,0E0,0E0],"parents":[2147483647,0,0,1,1,2,2,3,3,4,4,5,5,6,6,8,8,9,9,10,10,11,11,12,12,14,14,19,19],"right_children":[2,4,6,8,10,12,14,-1,16,18,20,22,24,-1,26,-1,-1,-1,-1,28,-1,-1,-1,-1,-1,-1,-1,-1,-1],"split_conditions":[1E0,2.4717395E-1,3.4940407E-1,-1.1337974E0,1E0,1E0,1.0238057E0,-9.3602605E-2,-8.2499474E-2,9.128583E-1,-1.0196562E-1,5.8001614E-1,-4.771063E-1,4.02876E-1,-8.878605E-1,-7.9564236E-2,-3.728222E-1,4.8290882E-2,-3.4890175E-1,3.4940407E-1,3.746441E-1,-2.79902E-1,9.775605E-2,-4.9224492E-2,3.4055078E-1,-3.4940057E-2,2.5522342E-1,-2.8228283E-1,2.0352568E-1],"split_indices":[9,0,5,1,19,18,0,0,3,0,2,0,4,0,3,0,0,0,0,5,0,0,0,0,0,0,0,0,0],"split_type":[0,0,0,0,0,0,0,0,0,0,0,0,0,0,0,0,0,0,0,0,0,0,0,0,0,0,0,0,0],"sum_hessian":[4.155501E1,2.1386333E1,2.0168676E1,1.2217839E1,9.168495E0,9.802263E0,1.0366413E1,1.9595622E0,1.0258277E1,4.484236E0,4.6842594E0,5.289894E0,4.5123687E0,7.9278126E0,2.438601E0,1.520133E0,8.738144E0,1.3732867E0,3.1109488E0,2.7685626E0,1.9156971E0,3.5835912E0,1.706303E0,1.4327629E0,3.079606E0,1.1189244E0,1.3196766E0,1.3380145E0,1.4305481E0],"tree_param":{"num_deleted":"0","num_feature":"22","num_nodes":"29","size_leaf_vector":"1"}},{"base_weights":[-4.4893324E-3,-5.583144E-1,5.872036E-1,-8.637982E-1,-2.5173342E-2,7.043918E-2,1.0435705E0,-9.38604E-1,-5.6199346E-2,-5.9663945E-1,8.076567E-1,-4.4300452E-1,6.507301E-1,4.4889754E-1,3.5505912E-1,-3.0242497E-1,-3.1378973E-1,-2.630858E-1,7.409157E-2,2.823983E-1,7.8099824E-2,-7.961177E-1,7.87808E-2,-4.0818725E-2,2.9721084E-1,2.329071E-1,-4.525113E-2,-2.2054578E-1,8.6679995E-2,-7.1364015E-2,-2.7035016E-1],"categories":[],"categories_nodes":[],"categories_segments":[],"categories_sizes":[],"default_left":[0,0,0,0,0,0,0,0,0,0,0,0,0,0,0,0,0,0,0,0,0,0,0,0,0,0,0,0,0,0,0],"id":3,"left_children":[1,3,5,7,9,11,13,15,-1,17,19,21,23,25,-1,27,-1,-1,-1,-1,-1,29,-1,-1,-1,-1,-1,-1,-1,-1,-1],"loss_changes":[1.2901996E1,3.28975E0,4.4165263E0,4.7675896E-1,4.497116E0,3.2680504E0,3.0417538E-1,4.597578E-1,0E0,1.5357597E0,3.7200928E-2,1.6793762E0,1.4989676E0,8.090676E-1,0E0,9.922353E-1,0E0,0E0,0E0,0E0,0E0,3.0812025E-2,0E0,0E0,0E0,0E0,0E0,0E0,0E0,0E0,0E0],"parents":[2147483647,0,0,1,1,2,2,3,3,4,4,5,5,6,6,7,7,9,9,10,10,11,11,12,12,13,13,15,15,21,21],"right_children":[2,4,6,8,10,12,14,16,-1,18,20,22,24,26,-1,28,-1,-1,-1,-1,-1,30,-1,-1,-1,-1,-1,-1,-1,-1,-1],"split_conditions":[1E0,1E0,3.4940407E-1,1.3117933E0,3.4940407E-1,1E0,-1.2010564E0,-1.1337974E0,-5.6199346E-2,5.442416E-1,1E0,5.8001614E-1,-4.771063E-1,4.6906874E-1,3.5505912E-1,-3.847174E-1,-3.1378973E-1,-2.630858E-1,7.409157E-2,2.823983E-1,7.8099824E-2,-7.6171976E-1,7.87808E-2,-4.0818725E-2,2.9721084E-1,2.329071E-1,-4.525113E-2,-2.2054578E-1,8.6679995E-2,-7.1364015E-2,-2.7035016E-1],"split_indices":[9,14,5,2,5,18,3,1,0,1,16,0,4,0,0,2,0,0,0,0,0,2,0,0,0,0,0,0,0,0,0],"split_type":[0,0,0,0,0,0,0,0,0,0,0,0,0,0,0,0,0,0,0,0,0,0,0,0,0,0,0,0,0,0,0],"sum_hessian":[3.7371582E1,1.9332634E1,1.8038948E1,1.1896098E1,7.436537E0,9.001031E0,9.037917E0,1.0362656E1,1.5334426E0,4.578494E0,2.8580425E0,4.9010997E0,4.099931E0,2.5234408E0,6.514477E0,2.0474184E0,8.315237E0,3.4069264E0,1.171568E0,1.7184732E0,1.1395693E0,3.1809537E0,1.7201462E0,1.4180193E0,2.6819115E0,1.4417397E0,1.081701E0,1.0418692E0,1.0055493E0,1.0208048E0,2.1601489E0],"tree_param":{"num_deleted":"0","num_feature":"22","num_nodes":"31","size_leaf_vector":"1"}},{"base_weights":[2.5683523E-3,-4.611656E-1,5.0504E-1,-7.872229E-1,-2.447556E-2,5.4065995E-2,9.2491114E-1,-5.6383975E-2,-8.8890404E-1,-6.103718E-1,5.2515084E-1,5.0801915E-1,-4.462008E-1,3.207897E-1,3.087724E-1,-4.4296384E-2,-3.0110246E-1,4.084731E-2,-2.8185624E-1,2.8435066E-1,-7.42983E-2,2.895428E-1,-6.7430936E-2,-2.5966546E-1,6.367903E-2,2.0234655E-1,-6.515801E-2],"categories":[],"categories_nodes":[],"categories_segments":[],"categories_sizes":[],"default_left":[0,0,0,0,0,0,0,0,0,0,0,0,0,0,0,0,0,0,0,0,0,0,0,0,0,0,0],"id":4,"left_children":[1,3,5,7,9,11,13,-1,15,17,19,21,23,-1,25,-1,-1,-1,-1,-1,-1,-1,-1,-1,-1,-1,-1],"loss_changes":[8.263941E0,2.6072721E0,3.1726294E0,4.745202E-1,3.1922202E0,2.331385E0,4.4839287E-1,0E0,5.9479904E-1,1.3021809E0,1.9133428E0,2.0011592E0,1.548182E0,0E0,7.3654056E-1,0E0,0E0,0E0,0E0,0E0,0E0,0E0,0E0,0E0,0E0,0E0,0E0],"parents":[2147483647,0,0,1,1,2,2,3,3,4,4,5,5,6,6,8,8,9,9,10,10,11,11,12,12,14,14],"right_children":[2,4,6,8,10,12,14,-1,16,18,20,22,24,-1,26,-1,-1,-1,-1,-1,-1,-1,-1,-1,-1,-1,-1],"split_conditions":[1E0,2.4717395E-1,3.4940407E-1,-1.1337974E0,1E0,1E0,1.0238057E0,-5.6383975E-2,-8.2499474E-2,9.128583E-1,1E0,-3.0756304E-1,5.8001614E-1,3.207897E-1,-7.7150273E-3,-4.4296384E-2,-3.0110246E-1,4.084731E-2,-2.8185624E-1,2.8435066E-1,-7.42983E-2,2.895428E-1,-6.7430936E-2,-2.5966546E-1,6.367903E-2,2.0234655E-1,-6.515801E-2],"split_indices":[9,0,5,1,19,16,0,0,3,0,20,0,0,0,2,0,0,0,0,0,0,0,0,0,0,0,0],"split_type":[0,0,0,0,0,0,0,0,0,0,0,0,0,0,0,0,0,0,0,0,0,0,0,0,0,0,0],"sum_hessian":[3.3466003E1,1.744662E1,1.601938E1,9.529018E0,7.9176035E0,8.267845E0,7.751536E0,1.7954712E0,7.733547E0,3.7788577E0,4.138746E0,4.326441E0,3.9414046E0,5.684037E0,2.067499E0,1.3434396E0,6.3901076E0,1.3357136E0,2.4431443E0,2.5290313E0,1.6097145E0,2.4691014E0,1.8573394E0,2.215767E0,1.7256376E0,1.0529662E0,1.0145327E0],"tree_param":{"num_deleted":"0","num_feature":"22","num_nodes":"27","size_leaf_vector":"1"}},{"base_weights":[2.6017835E-3,-3.9106148E-1,4.3494752E-1,3.0847771E-2,-7.0706075E-1,4.1482553E-2,8.2963383E-1,-3.8810986E-1,6.616865E-1,-8.214983E-1,7.413135E-3,-2.3721641E-1,2.3022917E-1,2.7018547E-1,2.9622415E-1,-6.6490406E-1,1.9297335E-2,2.4409129E-1,5.642132E-2,-2.8578827E-1,-2.8587916E-1,-4.566509E-1,1.5965089E-1,1.7959696E-1,-5.7781808E-2,-6.1551116E-2,-2.3612289E-1,-1.8739542E-1,5.406317E-2,-1.967889E-1,5.614193E-2],"categories":[],"categories_nodes":[],"categories_segments":[],"categories_sizes":[],"default_left":[0,0,0,0,0,0,0,0,0,0,0,0,0,0,0,0,0,0,0,0,0,0,0,0,0,0,0,0,0,0,0],"id":5,"left_children":[1,3,5,7,9,11,13,15,17,19,-1,21,-1,23,-1,25,-1,-1,-1,27,-1,29,-1,-1,-1,-1,-1,-1,-1,-1,-1],"loss_changes":[5.4773483E0,2.2680483E0,2.346982E0,2.416929E0,8.304987E-1,1.9486808E0,4.043131E-1,7.3676014E-1,1.083231E-1,3.1880236E-1,0E0,1.4372201E0,0E0,5.788274E-1,0E0,3.6582828E-2,0E0,0E0,0E0,5.993103E-1,0E0,8.980254E-1,0E0,0E0,0E0,0E0,0E0,0E0,0E0,0E0,0E0],"parents":[2147483647,0,0,1,1,2,2,3,3,4,4,5,5,6,6,7,7,8,8,9,9,11,11,13,13,15,15,19,19,21,21],"right_children":[2,4,6,8,10,12,14,16,18,20,-1,22,-1,24,-1,26,-1,-1,-1,28,-1,30,-1,-1,-1,-1,-1,-1,-1,-1,-1],"split_conditions":[1E0,1E0,3.4940407E-1,3.4940407E-1,1.438993E0,6.561109E-1,-1.2010564E0,1E0,1E0,1.4121191E-1,7.413135E-3,6.272998E-1,2.3022917E-1,4.6906874E-1,2.9622415E-1,-4.1851044E-1,1.9297335E-2,2.4409129E-1,5.642132E-2,1E0,-2.8587916E-1,4.446878E-1,1.5965089E-1,1.7959696E-1,-5.7781808E-2,-6.1551116E-2,-2.3612289E-1,-1.8739542E-1,5.406317E-2,-1.967889E-1,5.614193E-2],"split_indices":[9,13,5,5,5,1,3,18,16,3,0,4,0,0,0,0,0,0,0,19,0,2,0,0,0,0,0,0,0,0,0],"split_type":[0,0,0,0,0,0,0,0,0,0,0,0,0,0,0,0,0,0,0,0,0,0,0,0,0,0,0,0,0,0,0],"sum_hessian":[3.0182726E1,1.584808E1,1.4334645E1,7.1731567E0,8.674924E0,7.7318363E0,6.602809E0,4.541675E0,2.6314816E0,7.3957314E0,1.2791922E0,6.07342E0,1.6584167E0,2.0492172E0,4.5535913E0,2.5264232E0,2.0152516E0,1.4487476E0,1.182734E0,2.0824013E0,5.31333E0,5.0419054E0,1.0315144E0,1.0268339E0,1.0223835E0,1.0929627E0,1.4334605E0,1.0085506E0,1.0738506E0,3.835546E0,1.2063595E0],"tree_param":{"num_deleted":"0","num_feature":"22","num_nodes":"31","size_leaf_vector":"1"}},{"base_weights":[1.1762698E-2,4.025709E-1,-3.4354463E-1,-2.8176028E-1,7.3802924E-1,-6.450241E-1,-1.0233653E-2,7.192494E-2,-5.406582E-1,2.92557E-1,2.3185281E-1,-1.92317E-2,-8.083889E-1,2.6265836E-1,-1.7690085E-1,-2.2353223E-1,-3.2780163E-2,-1.1717756E-1,1.9227788E-1,-2.8463656E-1,-1.082666E-2,7.463465E-1,-2.0141427E-1,-1.3022773E-1,7.688864E-2,2.916416E-1,4.0466074E-2,-1.3308692E-1,2.0564806E-2],"categories":[],"categories_nodes":[],"categories_segments":[],"categories_sizes":[],"default_left":[0,0,0,0,0,0,0,0,0,0,0,0,0,0,0,0,0,0,0,0,0,0,0,0,0,0,0,0,0],"id":6,"left_children":[1,3,5,7,9,11,13,-1,15,-1,17,-1,19,21,-1,-1,-1,23,-1,-1,-1,25,27,-1,-1,-1,-1,-1,-1],"loss_changes":[4.1011195E0,3.4335399E0,1.5497257E0,8.513924E-1,9.3895864E-1,7.184148E-1,1.4786538E0,0E0,2.6074803E-1,0E0,7.0451957E-1,0E0,6.432986E-1,1.5831367E0,0E0,0E0,0E0,4.9286625E-1,0E0,0E0,0E0,3.2973242E-1,2.9491156E-1,0E0,0E0,0E0,0E0,0E0,0E0],"parents":[2147483647,0,0,1,1,2,2,3,3,4,4,5,5,6,6,8,8,10,10,12,12,13,13,17,17,21,21,22,22],"right_children":[2,4,6,8,10,12,14,-1,16,-1,18,-1,20,22,-1,-1,-1,24,-1,-1,-1,26,28,-1,-1,-1,-1,-1,-1],"split_conditions":[1E0,-4.771063E-1,2.4717395E-1,1E0,-1.2724175E-1,-9.6599346E-1,1E0,7.192494E-2,3.20181E-1,2.92557E-1,1E0,-1.92317E-2,3.7243685E-1,8.0191094E-1,-1.7690085E-1,-2.2353223E-1,-3.2780163E-2,5.8863467E-1,1.9227788E-1,-2.8463656E-1,-1.082666E-2,5.8863467E-1,1E0,-1.3022773E-1,7.688864E-2,2.916416E-1,4.0466074E-2,-1.3308692E-1,2.0564806E-2],"split_indices":[16,4,0,10,3,1,8,0,3,0,9,0,4,0,0,0,0,3,0,0,0,3,14,0,0,0,0,0,0],"split_type":[0,0,0,0,0,0,0,0,0,0,0,0,0,0,0,0,0,0,0,0,0,0,0,0,0,0,0,0,0],"sum_hessian":[2.7538843E1,1.3050913E1,1.4487929E1,4.3457355E0,8.705177E0,7.1161633E0,7.371766E0,1.4662204E0,2.8795154E0,5.296846E0,3.4083314E0,1.8675697E0,5.248594E0,5.3831897E0,1.9885759E0,1.460242E0,1.4192734E0,2.2241724E0,1.1841588E0,4.2478385E0,1.0007554E0,2.3380556E0,3.0451343E0,1.115386E0,1.1087865E0,1.2767338E0,1.0613219E0,1.2660112E0,1.7791231E0],"tree_param":{"num_deleted":"0","num_feature":"22","num_nodes":"29","size_leaf_vector":"1"}},{"base_weights":[8.124351E-3,-1.252129E-1,2.3631845E-1,-3.661031E-1,2.6097715E-1,-4.9541393E-1,1.2573314E-1,-1.0681093E-1,6.158761E-1,-6.929031E-1,-1.7068736E-1,-5.2291274E-1,1.5513368E-1,2.512576E-1,3.861362E-4,-2.7766466E-2,-2.4312778E-1,3.0018318E-2,-1.7617983E-1,-2.3205797E-1,7.516011E-3],"categories":[],"categories_nodes":[],"categories_segments":[],"categories_sizes":[],"default_left":[0,0,0,0,0,0,0,0,0,0,0,0,0,0,0,0,0,0,0,0,0],"id":7,"left_children":[1,3,-1,5,7,9,-1,11,13,15,17,19,-1,-1,-1,-1,-1,-1,-1,-1,-1],"loss_changes":[2.8250892E0,2.2594626E0,0E0,1.7044159E0,1.3083106E0,7.2280884E-1,0E0,1.7052876E0,6.789918E-1,4.7732806E-1,7.678275E-1,5.429963E-1,0E0,0E0,0E0,0E0,0E0,0E0,0E0,0E0,0E0],"parents":[2147483647,0,0,1,1,3,3,4,4,5,5,7,7,8,8,9,9,10,10,11,11],"right_children":[2,4,-1,6,8,10,-1,12,14,16,18,20,-1,-1,-1,-1,-1,-1,-1,-1,-1],"split_conditions":[1.22198E0,3.4940407E-1,2.3631845E-1,1.103588E0,1E0,-1.3966586E-1,1.2573314E-1,1E0,1.0238057E0,-1.417037E0,9.018306E-1,1.438993E0,1.5513368E-1,2.512576E-1,3.861362E-4,-2.7766466E-2,-2.4312778E-1,3.0018318E-2,-1.7617983E-1,-2.3205797E-1,7.516011E-3],"split_indices":[4,5,0,1,9,2,0,14,0,0,3,5,0,0,0,0,0,0,0,0,0],"split_type":[0,0,0,0,0,0,0,0,0,0,0,0,0,0,0,0,0,0,0,0,0],"sum_hessian":[2.522847E1,2.2260586E1,2.9678848E0,1.3741308E1,8.519277E0,1.2115217E1,1.6260916E0,4.5269527E0,3.9923236E0,6.828511E0,5.2867055E0,2.8128953E0,1.7140577E0,2.6675434E0,1.32478E0,1.4105363E0,5.417975E0,3.6646984E0,1.6220071E0,1.6476884E0,1.1652068E0],"tree_param":{"num_deleted":"0","num_feature":"22","num_nodes":"21","size_leaf_vector":"1"}},{"base_weights":[1.0757952E-2,-2.7285248E-1,3.328431E-1,-6.7265296E-1,1.4459511E-2,5.853712E-1,-6.811712E-2,-2.5333393E-1,-3.357064E-2,-5.957062E-1,3.676812E-1,2.0127494E-2,2.4957359E-1,1.3794975E-1,-4.7007683E-1,-2.1102321E-1,-5.6070838E-2,6.9129056E-1,-1.4072391E-1,1.470335E-1,-1.2138541E-1,-2.315316E-1,4.201051E-2,6.2130228E-2,2.755788E-1],"categories":[],"categories_nodes":[],"categories_segments":[],"categories_sizes":[],"default_left":[0,0,0,0,0,0,0,0,0,0,0,0,0,0,0,0,0,0,0,0,0,0,0,0,0],"id":8,"left_children":[1,3,5,7,9,11,13,-1,-1,15,17,19,-1,-1,21,-1,-1,23,-1,-1,-1,-1,-1,-1,-1],"loss_changes":[2.3137763E0,1.5593042E0,1.2392515E0,4.509306E-1,2.1217325E0,1.010603E0,1.3776366E0,0E0,0E0,2.7853012E-2,2.005775E0,8.4982497E-1,0E0,0E0,7.710562E-1,0E0,0E0,3.470893E-1,0E0,0E0,0E0,0E0,0E0,0E0,0E0],"parents":[2147483647,0,0,1,1,2,2,3,3,4,4,5,5,6,6,9,9,10,10,11,11,14,14,17,17],"right_children":[2,4,6,8,10,12,14,-1,-1,16,18,20,-1,-1,22,-1,-1,24,-1,-1,-1,-1,-1,-1,-1],"split_conditions":[1E0,1E0,1E0,1E0,-3.847174E-1,-4.771063E-1,-7.3196924E-1,-2.5333393E-1,-3.357064E-2,-1.9661564E-1,8.570883E-1,-1.9661564E-1,2.4957359E-1,1.3794975E-1,1E0,-2.1102321E-1,-5.6070838E-2,1E0,-1.4072391E-1,1.470335E-1,-1.2138541E-1,-2.315316E-1,4.201051E-2,6.2130228E-2,2.755788E-1],"split_indices":[9,19,16,7,2,4,4,0,0,0,3,0,0,0,21,0,0,10,0,0,0,0,0,0,0],"split_type":[0,0,0,0,0,0,0,0,0,0,0,0,0,0,0,0,0,0,0,0,0,0,0,0,0],"sum_hessian":[2.3335407E1,1.2490137E1,1.084527E1,4.6618643E0,7.8282723E0,6.372128E0,4.473142E0,3.1813078E0,1.4805565E0,2.6185012E0,5.209771E0,2.263726E0,4.1084023E0,1.8713118E0,2.6018302E0,1.502097E0,1.116404E0,3.882212E0,1.3275595E0,1.0015776E0,1.2621483E0,1.5636505E0,1.0381799E0,1.850826E0,2.031386E0],"tree_param":{"num_deleted":"0","num_feature":"22","num_nodes":"25","size_leaf_vector":"1"}},{"base_weights":[1.3225619E-3,-2.239085E-1,3.513787E-1,-3.6843058E-1,2.4857134E-1,-6.854507E-2,5.637058E-1,9.2644714E-2,-4.9110004E-1,1.6425294E-1,-2.4149206E-2,8.184308E-2,-1.5245911E-1,1.3642643E-1,2.2254734E-1,1.1199442E-1,-6.5182075E-2,-2.4056703E-1,-2.0549107E-1,8.3097674E-2,-2.144231E-2,-1.5633732E-1,4.8390996E-2],"categories":[],"categories_nodes":[],"categories_segments":[],"categories_sizes":[],"default_left":[0,0,0,0,0,0,0,0,0,0,0,0,0,0,0,0,0,0,0,0,0,0,0],"id":9,"left_children":[1,3,5,7,9,11,13,15,17,-1,-1,-1,-1,19,-1,-1,-1,-1,21,-1,-1,-1,-1],"loss_changes":[1.8680278E0,1.0762632E0,8.6556804E-1,6.928575E-1,4.3508613E-1,7.39886E-1,3.7585366E-1,3.6350662E-1,6.517694E-1,0E0,0E0,0E0,0E0,1.095029E-1,0E0,0E0,0E0,0E0,7.947047E-1,0E0,0E0,0E0,0E0],"parents":[2147483647,0,0,1,1,2,2,3,3,4,4,5,5,6,6,7,7,8,8,13,13,18,18],"right_children":[2,4,6,8,10,12,14,16,18,-1,-1,-1,-1,20,-1,-1,-1,-1,22,-1,-1,-1,-1],"split_conditions":[3.4940407E-1,7.6798016E-1,1E0,-9.5022094E-1,1E0,1.0238057E0,-3.9215198E-1,-3.0756304E-1,-4.2241764E-1,1.6425294E-1,-2.4149206E-2,8.184308E-2,-1.5245911E-1,-8.1692356E-1,2.2254734E-1,1.1199442E-1,-6.5182075E-2,-2.4056703E-1,1E0,8.3097674E-2,-2.144231E-2,-1.5633732E-1,4.8390996E-2],"split_indices":[5,1,19,2,10,0,4,0,2,0,0,0,0,4,0,0,0,0,10,0,0,0,0],"split_type":[0,0,0,0,0,0,0,0,0,0,0,0,0,0,0,0,0,0,0,0,0,0,0],"sum_hessian":[2.1694971E1,1.3420437E1,8.274534E0,1.0445567E1,2.9748697E0,3.0062273E0,5.2683067E0,2.24649E0,8.199077E0,1.2109661E0,1.7639036E0,1.9059174E0,1.10031E0,2.0695949E0,3.1987119E0,1.071528E0,1.1749622E0,3.0607846E0,5.1382923E0,1.0364809E0,1.033114E0,2.5356042E0,2.6026878E0],"tree_param":{"num_deleted":"0","num_feature":"22","num_nodes":"23","size_leaf_vector":"1"}},{"base_weights":[2.8423506E-3,-2.5550714E-1,3.0284867E-1,-6.687702E-1,-3.639257E-2,-3.7006175E-4,5.6140786E-1,-2.3134711E-1,-5.8286812E-2,2.0596613E-1,-2.7273196E-1,1.2951322E-1,-2.9135028E-1,2.860677E-2,2.3955E-1,3.758459E-2,-2.0205459E-1,-1.6789338E-1,3.7836514E-2,-1.057618E-1,1.0128841E-1],"categories":[],"categories_nodes":[],"categories_segments":[],"categories_sizes":[],"default_left":[0,0,0,0,0,0,0,0,0,0,0,0,0,0,0,0,0,0,0,0,0],"id":10,"left_children":[1,3,5,7,9,11,13,-1,-1,-1,15,-1,17,-1,-1,19,-1,-1,-1,-1,-1],"loss_changes":[1.7526091E0,1.0763834E0,8.2014316E-1,5.1991463E-2,1.7252262E0,8.56607E-1,5.47675E-1,0E0,0E0,0E0,9.5801157E-1,0E0,5.2651644E-1,0E0,0E0,7.246516E-1,0E0,0E0,0E0,0E0,0E0],"parents":[2147483647,0,0,1,1,2,2,3,3,4,4,5,5,6,6,10,10,12,12,15,15],"right_children":[2,4,6,8,10,12,14,-1,-1,-1,16,-1,18,-1,-1,20,-1,-1,-1,-1,-1],"split_conditions":[1E0,-3.847174E-1,1E0,2.4717395E-1,-1.9621621E-1,-7.3196924E-1,-4.771063E-1,-2.3134711E-1,-5.8286812E-2,2.0596613E-1,4.5440787E-1,1.2951322E-1,1E0,2.860677E-2,2.3955E-1,1E0,-2.0205459E-1,-1.6789338E-1,3.7836514E-2,-1.057618E-1,1.0128841E-1],"split_indices":[9,2,18,0,2,4,4,0,0,0,3,0,21,0,0,19,0,0,0,0,0],"split_type":[0,0,0,0,0,0,0,0,0,0,0,0,0,0,0,0,0,0,0,0,0],"sum_hessian":[2.0614052E1,1.1155691E1,9.458361E0,3.154316E0,8.001375E0,4.8128185E0,4.645542E0,2.080176E0,1.0741398E0,1.5019778E0,6.4993973E0,1.742183E0,3.0706358E0,2.039225E0,2.6063168E0,4.173885E0,2.325513E0,1.6619828E0,1.408653E0,1.7384924E0,2.4353921E0],"tree_param":{"num_deleted":"0","num_feature":"22","num_nodes":"21","size_leaf_vector":"1"}},{"base_weights":[1.3623628E-4,-1.9021031E-1,3.0277103E-1,-2.829187E-1,9.75446E-2,4.7270042E-1,-4.4521265E-2,-3.7498283E-1,9.6306674E-2,-7.3192143E-3,6.511186E-1,2.783431E-2,-4.7713584E-1,2.2764586E-1,5.388498E-2,8.211468E-2,-7.0166685E-2,-2.0314549E-1,2.308338E-2],"categories":[],"categories_nodes":[],"categories_segments":[],"categories_sizes":[],"default_left":[0,0,0,0,0,0,0,0,0,0,0,0,0,0,0,0,0,0,0],"id":11,"left_children":[1,3,5,7,-1,9,-1,11,-1,-1,13,15,17,-1,-1,-1,-1,-1,-1],"loss_changes":[1.2257441E0,7.1611E-1,7.0002663E-1,7.6568586E-1,0E0,5.663781E-1,0E0,4.466635E-1,0E0,0E0,9.747982E-2,2.6193362E-1,9.893023E-1,0E0,0E0,0E0,0E0,0E0,0E0],"parents":[2147483647,0,0,1,1,2,2,3,3,5,5,7,7,10,10,11,11,12,12],"right_children":[2,4,6,8,-1,10,-1,12,-1,-1,14,16,18,-1,-1,-1,-1,-1,-1],"split_conditions":[3.4940407E-1,1.103588E0,1E0,1.22198E0,9.75446E-2,-1.0668296E0,-4.4521265E-2,-1.1337974E0,9.6306674E-2,-7.3192143E-3,3.205031E-1,-7.513526E-1,1E0,2.2764586E-1,5.388498E-2,8.211468E-2,-7.0166685E-2,-2.0314549E-1,2.308338E-2],"split_indices":[5,1,8,4,0,3,0,1,0,0,1,0,21,0,0,0,0,0,0],"split_type":[0,0,0,0,0,0,0,0,0,0,0,0,0,0,0,0,0,0,0],"sum_hessian":[1.9278517E1,1.206288E1,7.2156377E0,1.0605987E1,1.4568937E0,5.2068396E0,2.0087984E0,9.532039E0,1.0739477E0,1.603242E0,3.6035974E0,2.0754592E0,7.456579E0,2.4374633E0,1.1661339E0,1.0464911E0,1.0289682E0,5.3155994E0,2.1409798E0],"tree_param":{"num_deleted":"0","num_feature":"22","num_nodes":"19","size_leaf_vector":"1"}},{"base_weights":[1.1604051E-2,-2.0311588E-1,2.584643E-1,-5.9734964E-1,-4.7119623E-3,8.7740526E-2,1.9832167E-1,-2.0766357E-1,-5.295375E-2,1.7743115E-1,-2.1155207E-1,-1.2672684E-1,3.9377207E-1,-5.7027364E-1,9.950025E-2,1.1434332E-1,-3.9397314E-1,1.9208239E-1,-2.28951E-2,-4.615113E-2,-2.0558937E-1,-9.93579E-2,1.4342129E-1,-1.8747868E-1,3.847771E-2],"categories":[],"categories_nodes":[],"categories_segments":[],"categories_sizes":[],"default_left":[0,0,0,0,0,0,0,0,0,0,0,0,0,0,0,0,0,0,0,0,0,0,0,0,0],"id":12,"left_children":[1,3,5,7,9,11,-1,-1,-1,-1,13,15,17,19,21,-1,23,-1,-1,-1,-1,-1,-1,-1,-1],"loss_changes":[1.0771844E0,8.4966135E-1,5.9035796E-1,2.3160577E-2,1.143397E0,5.6033415E-1,0E0,0E0,0E0,0E0,8.2301545E-1,8.7345755E-1,4.484018E-1,5.446112E-2,8.9686376E-1,0E0,5.60604E-1,0E0,0E0,0E0,0E0,0E0,0E0,0E0,0E0],"parents":[2147483647,0,0,1,1,2,2,3,3,4,4,5,5,10,10,11,11,12,12,13,13,14,14,16,16],"right_children":[2,4,6,8,10,12,-1,-1,-1,-1,14,16,18,20,22,-1,24,-1,-1,-1,-1,-1,-1,-1,-1],"split_conditions":[1E0,-3.847174E-1,6.561109E-1,2.4717395E-1,-1.9621621E-1,3.4940407E-1,1.9832167E-1,-2.0766357E-1,-5.295375E-2,1.7743115E-1,1.3622655E-1,-9.5022094E-1,9.128583E-1,-6.4040524E-1,1E0,1.1434332E-1,3.12737E-1,1.9208239E-1,-2.28951E-2,-4.615113E-2,-2.0558937E-1,-9.93579E-2,1.4342129E-1,-1.8747868E-1,3.847771E-2],"split_indices":[9,2,1,0,2,5,0,0,0,0,0,2,0,0,19,0,2,0,0,0,0,0,0,0,0],"split_type":[0,0,0,0,0,0,0,0,0,0,0,0,0,0,0,0,0,0,0,0,0,0,0,0,0],"sum_hessian":[1.833158E1,9.898785E0,8.432795E0,2.6407566E0,7.258028E0,6.7769814E0,1.6558133E0,1.6287663E0,1.0119904E0,1.3906215E0,5.8674064E0,4.329067E0,2.4479141E0,2.3378773E0,3.5295293E0,1.34564E0,2.9834273E0,1.3683556E0,1.0795585E0,1.0118787E0,1.3259985E0,1.709645E0,1.8198844E0,1.932247E0,1.0511804E0],"tree_param":{"num_deleted":"0","num_feature":"22","num_nodes":"25","size_leaf_vector":"1"}},{"base_weights":[9.993314E-3,1.2213131E-1,-4.018953E-1,-1.5497082E-1,2.051191E-1,-3.9588884E-2,-1.4549224E-1,-1.0772546E-1,3.7138376E-1,2.4327518E-1,-1.9074602E-1,7.823595E-1,1.1560467E-1,-1.4288037E-1,2.0193635E-1,7.084619E-2,2.750224E-1,-4.7065128E-2,1.7877303E-1],"categories":[],"categories_nodes":[],"categories_segments":[],"categories_sizes":[],"default_left":[0,0,0,0,0,0,0,0,0,0,0,0,0,0,0,0,0,0,0],"id":13,"left_children":[1,3,5,-1,7,-1,-1,9,11,13,-1,15,17,-1,-1,-1,-1,-1,-1],"loss_changes":[8.875191E-1,9.028758E-1,2.8340697E-2,0E0,7.693532E-1,0E0,0E0,1.2003287E0,8.956455E-1,1.5924093E0,0E0,3.49195E-2,1.0038058E0,0E0,0E0,0E0,0E0,0E0,0E0],"parents":[2147483647,0,0,1,1,2,2,4,4,7,7,8,8,9,9,11,11,12,12],"right_children":[2,4,6,-1,8,-1,-1,10,12,14,-1,16,18,-1,-1,-1,-1,-1,-1],"split_conditions":[9.465729E-1,-1.357536E0,1.125542E0,-1.5497082E-1,1E0,-3.9588884E-2,-1.4549224E-1,1.0238057E0,-4.1851044E-1,3.5812134E-1,-1.9074602E-1,-1.0841948E0,2.7503675E-1,-1.4288037E-1,2.0193635E-1,7.084619E-2,2.750224E-1,-4.7065128E-2,1.7877303E-1],"split_indices":[3,1,3,0,19,0,0,0,0,0,0,0,2,0,0,0,0,0,0],"split_type":[0,0,0,0,0,0,0,0,0,0,0,0,0,0,0,0,0,0,0],"sum_hessian":[1.7152517E1,1.4034945E1,3.117574E0,1.0131066E0,1.3021837E1,1.3428642E0,1.7747097E0,4.6411347E0,8.380703E0,3.112038E0,1.529097E0,2.4252214E0,5.9554815E0,1.1234448E0,1.988593E0,1.0232947E0,1.4019268E0,4.229407E0,1.7260743E0],"tree_param":{"num_deleted":"0","num_feature":"22","num_nodes":"19","size_leaf_vector":"1"}},{"base_weights":[7.822526E-3,-1.5892346E-1,2.703198E-1,1.2137158E-1,-3.1258142E-1,-4.993907E-2,5.024373E-1,-2.0289153E-1,1.7011462E-1,-5.7186615E-1,1.0682761E-1,9.723244E-2,-1.1747592E-1,2.0529446E-1,3.4577023E-2,7.670447E-2,-1.7783308E-1,-2.3463322E-1,-4.3701332E-2,1.1956432E-1,-6.426166E-2],"categories":[],"categories_nodes":[],"categories_segments":[],"categories_sizes":[],"default_left":[0,0,0,0,0,0,0,0,0,0,0,0,0,0,0,0,0,0,0,0,0],"id":14,"left_children":[1,3,5,7,9,11,13,15,-1,17,19,-1,-1,-1,-1,-1,-1,-1,-1,-1,-1],"loss_changes":[8.005343E-1,5.209274E-1,5.5242527E-1,7.929945E-1,8.791941E-1,6.2409294E-1,2.1711898E-1,7.687347E-1,0E0,3.1674516E-1,4.3344325E-1,0E0,0E0,0E0,0E0,0E0,0E0,0E0,0E0,0E0,0E0],"parents":[2147483647,0,0,1,1,2,2,3,3,4,4,5,5,6,6,7,7,9,9,10,10],"right_children":[2,4,6,8,10,12,14,16,-1,18,20,-1,-1,-1,-1,-1,-1,-1,-1,-1,-1],"split_conditions":[3.4940407E-1,-4.1851044E-1,-3.9215198E-1,-9.732474E-1,4.446878E-1,1E0,1E0,1E0,1.7011462E-1,1E0,-6.470149E-1,9.723244E-2,-1.1747592E-1,2.0529446E-1,3.4577023E-2,7.670447E-2,-1.7783308E-1,-2.3463322E-1,-4.3701332E-2,1.1956432E-1,-6.426166E-2],"split_indices":[5,0,4,0,2,10,16,16,0,21,4,0,0,0,0,0,0,0,0,0,0],"split_type":[0,0,0,0,0,0,0,0,0,0,0,0,0,0,0,0,0,0,0,0,0],"sum_hessian":[1.6307924E1,1.0214159E1,6.093764E0,3.6911213E0,6.523038E0,2.8905072E0,3.2032568E0,2.4519227E0,1.2391986E0,3.8063762E0,2.7166617E0,1.4043328E0,1.4861745E0,1.657308E0,1.5459489E0,1.2848861E0,1.1670365E0,1.9897304E0,1.816646E0,1.296809E0,1.4198527E0],"tree_param":{"num_deleted":"0","num_feature":"22","num_nodes":"21","size_leaf_vector":"1"}},{"base_weights":[8.237807E-3,-1.9145502E-1,2.3236275E-1,-4.245392E-1,5.941159E-2,-3.0812103E-2,3.5715026E-1,1.6207017E-2,-1.74283E-1,3.9105526E-1,-2.731902E-1,5.4371554E-1,4.383267E-2,-2.6192132E-2,2.0220329E-1,-1.9292006E-1,5.8839153E-2,3.8844533E-2,2.0955783E-1,-1.0688757E-1,1.1404105E-1],"categories":[],"categories_nodes":[],"categories_segments":[],"categories_sizes":[],"default_left":[0,0,0,0,0,0,0,0,0,0,0,0,0,0,0,0,0,0,0,0,0],"id":15,"left_children":[1,3,5,7,9,-1,11,-1,-1,13,15,17,19,-1,-1,-1,-1,-1,-1,-1,-1],"loss_changes":[7.808552E-1,5.660365E-1,3.797097E-1,3.9942968E-1,6.9495654E-1,0E0,3.3864552E-1,0E0,0E0,4.758782E-1,6.904284E-1,1.5317667E-1,5.932294E-1,0E0,0E0,0E0,0E0,0E0,0E0,0E0,0E0],"parents":[2147483647,0,0,1,1,2,2,3,3,4,4,6,6,9,9,10,10,11,11,12,12],"right_children":[2,4,6,8,10,-1,12,-1,-1,14,16,18,20,-1,-1,-1,-1,-1,-1,-1,-1],"split_conditions":[1E0,2.4717395E-1,-1.0220873E0,-1.1337974E0,4.3237236E-1,-3.0812103E-2,1E0,1.6207017E-2,-1.74283E-1,-1.2697397E-1,-1.0196562E-1,-7.0516944E-1,6.909635E-1,-2.6192132E-2,2.0220329E-1,-1.9292006E-1,5.8839153E-2,3.8844533E-2,2.0955783E-1,-1.0688757E-1,1.1404105E-1],"split_indices":[9,0,3,1,1,0,16,0,0,1,2,2,0,0,0,0,0,0,0,0,0],"split_type":[0,0,0,0,0,0,0,0,0,0,0,0,0,0,0,0,0,0,0,0,0],"sum_hessian":[1.5452897E1,8.248945E0,7.203952E0,3.917159E0,4.331786E0,2.0028903E0,5.2010612E0,1.1261067E0,2.7910523E0,2.0810175E0,2.2507687E0,2.7990277E0,2.4020338E0,1.0304291E0,1.0505883E0,1.0517029E0,1.1990657E0,1.2610816E0,1.537946E0,1.0697929E0,1.3322409E0],"tree_param":{"num_deleted":"0","num_feature":"22","num_nodes":"21","size_leaf_vector":"1"}},{"base_weights":[1.2662568E-2,-6.471538E-2,1.4034933E-1,-1.4796172E-1,8.912486E-2,6.973676E-2,-3.0011177E-1,3.4988514E-1,-2.0057663E-1,-5.674953E-1,8.870514E-2,3.54699E-2,1.2913066E-1,-1.754193E-1,6.31832E-2,-2.0335478E-1,-6.1078362E-2,-9.413717E-2,1.19591795E-1],"categories":[],"categories_nodes":[],"categories_segments":[],"categories_sizes":[],"default_left":[0,0,0,0,0,0,0,0,0,0,0,0,0,0,0,0,0,0,0],"id":16,"left_children":[1,3,-1,5,-1,7,9,11,13,15,17,-1,-1,-1,-1,-1,-1,-1,-1],"loss_changes":[5.8177316E-1,4.7350365E-1,0E0,4.2707318E-1,0E0,5.136219E-1,8.2029295E-1,9.564549E-3,6.943011E-1,4.364562E-2,6.094284E-1,0E0,0E0,0E0,0E0,0E0,0E0,0E0,0E0],"parents":[2147483647,0,0,1,1,3,3,5,5,6,6,7,7,8,8,9,9,10,10],"right_children":[2,4,-1,6,-1,8,10,12,14,16,18,-1,-1,-1,-1,-1,-1,-1,-1],"split_conditions":[1.22198E0,1.438993E0,1.4034933E-1,-7.3196924E-1,8.912486E-2,4.0966558E-1,1E0,1.3622655E-1,-2.3884325E-1,2.8748253E-1,-3.0719766E-1,3.54699E-2,1.2913066E-1,-1.754193E-1,6.31832E-2,-2.0335478E-1,-6.1078362E-2,-9.413717E-2,1.19591795E-1],"split_indices":[4,5,0,4,0,3,18,0,1,4,4,0,0,0,0,0,0,0,0],"split_type":[0,0,0,0,0,0,0,0,0,0,0,0,0,0,0,0,0,0,0],"sum_hessian":[1.4658638E1,1.3261948E1,1.3966897E0,1.1261762E1,2.0001867E0,4.8557467E0,6.4060144E0,2.2399406E0,2.615806E0,3.5234487E0,2.882566E0,1.2146331E0,1.0253074E0,1.1341574E0,1.4816488E0,2.0415971E0,1.4818515E0,1.2486131E0,1.6339529E0],"tree_param":{"num_deleted":"0","num_feature":"22","num_nodes":"19","size_leaf_vector":"1"}},{"base_weights":[1.0603107E-2,-1.538818E-1,1.9381121E-1,-4.4341737E-1,3.2897137E-2,4.0307742E-1,-1.9800335E-2,-4.363263E-2,-1.5736358E-1,-2.1310921E-1,1.1415594E-1,1.6194363E-1,1.5036102E-2,-2.683017E-1,1.1627903E-1,6.0075007E-2,-1.518592E-1,-1.3378951E-1,1.8062154E-3],"categories":[],"categories_nodes":[],"categories_segments":[],"categories_sizes":[],"default_left":[0,0,0,0,0,0,0,0,0,0,0,0,0,0,0,0,0,0,0],"id":17,"left_children":[1,3,5,7,9,11,13,-1,-1,15,-1,-1,-1,17,-1,-1,-1,-1,-1],"loss_changes":[4.842707E-1,4.744571E-1,3.4667364E-1,5.9887767E-3,6.027495E-1,1.5991491E-1,5.8007956E-1,0E0,0E0,6.1178684E-1,0E0,0E0,0E0,1.7384303E-1,0E0,0E0,0E0,0E0,0E0],"parents":[2147483647,0,0,1,1,2,2,3,3,4,4,5,5,6,6,9,9,13,13],"right_children":[2,4,6,8,10,12,14,-1,-1,16,-1,-1,-1,18,-1,-1,-1,-1,-1],"split_conditions":[1E0,1E0,1E0,1E0,4.6906874E-1,2.0863383E-1,9.676456E-2,-4.363263E-2,-1.5736358E-1,-4.1851044E-1,1.1415594E-1,1.6194363E-1,1.5036102E-2,1E0,1.1627903E-1,6.0075007E-2,-1.518592E-1,-1.3378951E-1,1.8062154E-3],"split_indices":[9,19,10,8,0,1,1,0,0,0,0,0,0,21,0,0,0,0,0],"split_type":[0,0,0,0,0,0,0,0,0,0,0,0,0,0,0,0,0,0,0],"sum_hessian":[1.4080377E1,7.5036464E0,6.57673E0,2.4036317E0,5.1000147E0,2.8741157E0,3.702614E0,1.1120234E0,1.2916083E0,3.2131078E0,1.8869066E0,1.690011E0,1.1841047E0,2.511867E0,1.1907473E0,1.4644568E0,1.748651E0,1.144768E0,1.3670989E0],"tree_param":{"num_deleted":"0","num_feature":"22","num_nodes":"19","size_leaf_vector":"1"}},{"base_weights":[5.819144E-3,-1.3616554E-1,2.2885981E-1,9.278742E-2,-2.6204097E-1,3.9615238E-1,-3.0870693E-2,-5.8617968E-2,1.3964528E-1,-2.0015067E-1,-2.7401172E-2,-3.1581122E-2,1.9523337E-1,-1.0450066E-1,2.4709782E-1,1.18380494E-1,1.8997119E-3],"categories":[],"categories_nodes":[],"categories_segments":[],"categories_sizes":[],"default_left":[0,0,0,0,0,0,0,0,0,0,0,0,0,0,0,0,0],"id":18,"left_children":[1,3,5,7,9,11,-1,-1,-1,-1,13,-1,-1,-1,15,-1,-1],"loss_changes":[4.9306574E-1,2.9922944E-1,3.7635013E-1,5.337289E-1,5.916811E-1,6.0803026E-1,0E0,0E0,0E0,0E0,5.359035E-1,0E0,0E0,0E0,1.1601727E-1,0E0,0E0],"parents":[2147483647,0,0,1,1,2,2,3,3,4,4,5,5,10,10,14,14],"right_children":[2,4,6,8,10,12,-1,-1,-1,-1,14,-1,-1,-1,16,-1,-1],"split_conditions":[3.4940407E-1,-4.1851044E-1,9.128583E-1,-9.732474E-1,-5.74451E-1,2.5279153E-2,-3.0870693E-2,-5.8617968E-2,1.3964528E-1,-2.0015067E-1,-1.0196562E-1,-3.1581122E-2,1.9523337E-1,-1.0450066E-1,-6.470149E-1,1.18380494E-1,1.8997119E-3],"split_indices":[5,0,0,0,1,0,0,0,0,0,2,0,0,0,4,0,0],"split_type":[0,0,0,0,0,0,0,0,0,0,0,0,0,0,0,0,0],"sum_hessian":[1.35856285E1,8.539195E0,5.0464334E0,3.1225317E0,5.4166636E0,3.2257493E0,1.8206843E0,2.0292132E0,1.0933185E0,1.3105317E0,4.106132E0,1.2839301E0,1.9418191E0,1.7689513E0,2.3371806E0,1.0530736E0,1.284107E0],"tree_param":{"num_deleted":"0","num_feature":"22","num_nodes":"17","size_leaf_vector":"1"}},{"base_weights":[6.335185E-3,9.987074E-2,-3.1409273E-1,1.3927612E-3,1.2639283E-1,-2.7104622E-2,-1.1860389E-1,2.726378E-1,-1.2801744E-1,-2.4043605E-2,1.6086107E-1,-1.3359316E-1,2.9245783E-2,-2.9588288E-2,7.799803E-2],"categories":[],"categories_nodes":[],"categories_segments":[],"categories_sizes":[],"default_left":[0,0,0,0,0,0,0,0,0,0,0,0,0,0,0],"id":19,"left_children":[1,3,5,7,-1,-1,-1,9,11,-1,-1,-1,13,-1,-1],"loss_changes":[4.5260552E-1,3.6780056E-1,2.6400417E-2,3.8282433E-1,0E0,0E0,0E0,3.703611E-1,3.8181287E-1,0E0,0E0,0E0,1.9913848E-1,0E0,0E0],"parents":[2147483647,0,0,1,1,2,2,3,3,7,7,8,8,12,12],"right_children":[2,4,6,8,-1,-1,-1,10,12,-1,-1,-1,14,-1,-1],"split_conditions":[9.018306E-1,1.438993E0,1.2597688E0,-4.1851044E-1,1.2639283E-1,-2.7104622E-2,-1.1860389E-1,-9.732474E-1,-5.74451E-1,-2.4043605E-2,1.6086107E-1,-1.3359316E-1,2.8748253E-1,-2.9588288E-2,7.799803E-2],"split_indices":[3,5,3,0,0,0,0,0,1,0,0,0,4,0,0],"split_type":[0,0,0,0,0,0,0,0,0,0,0,0,0,0,0],"sum_hessian":[1.3054624E1,1.063771E1,2.4169145E0,8.911775E0,1.7259347E0,1.2065185E0,1.2103959E0,2.5209875E0,6.390787E0,1.3756272E0,1.1453605E0,1.5108608E0,4.879926E0,3.5083034E0,1.3716227E0],"tree_param":{"num_deleted":"0","num_feature":"22","num_nodes":"15","size_leaf_vector":"1"}},{"base_weights":[6.97706E-3,-1.624935E-1,1.9065002E-1,-3.255718E-1,1.0056553E-1,-3.6856532E-2,3.1328934E-1,-9.101691E-4,-4.0867636E-1,-6.272288E-2,1.2229173E-1,4.8208067E-1,4.1125324E-2,-1.6805652E-1,-1.1879955E-2,4.3140013E-2,1.7743713E-1,8.9540705E-2,-7.556081E-2],"categories":[],"categories_nodes":[],"categories_segments":[],"categories_sizes":[],"default_left":[0,0,0,0,0,0,0,0,0,0,0,0,0,0,0,0,0,0,0],"id":20,"left_children":[1,3,5,7,9,-1,11,-1,13,-1,-1,15,17,-1,-1,-1,-1,-1,-1],"loss_changes":[4.565481E-1,3.609529E-1,3.0844003E-1,1.3167995E-1,4.3626124E-1,0E0,2.2496372E-1,0E0,1.9788635E-1,0E0,0E0,3.31859E-2,3.1140205E-1,0E0,0E0,0E0,0E0,0E0,0E0],"parents":[2147483647,0,0,1,1,2,2,3,3,4,4,6,6,8,8,11,11,12,12],"right_children":[2,4,6,8,10,-1,12,-1,14,-1,-1,16,18,-1,-1,-1,-1,-1,-1],"split_conditions":[1E0,1E0,-1.0220873E0,-1.1337974E0,3.4940407E-1,-3.6856532E-2,1E0,-9.101691E-4,3.8813746E-1,-6.272288E-2,1.2229173E-1,-7.0516944E-1,-8.1692356E-1,-1.6805652E-1,-1.1879955E-2,4.3140013E-2,1.7743713E-1,8.9540705E-2,-7.556081E-2],"split_indices":[9,14,3,1,5,0,16,0,2,0,0,2,4,0,0,0,0,0,0],"split_type":[0,0,0,0,0,0,0,0,0,0,0,0,0,0,0,0,0,0,0],"sum_hessian":[1.2671943E1,6.650759E0,6.0211835E0,3.958887E0,2.6918724E0,1.6926001E0,4.3285832E0,1.0234134E0,2.9354737E0,1.4992334E0,1.192639E0,2.1956146E0,2.1329687E0,1.7140265E0,1.2214471E0,1.1020154E0,1.0935992E0,1.1256242E0,1.0073445E0],"tree_param":{"num_deleted":"0","num_feature":"22","num_nodes":"19","size_leaf_vector":"1"}},{"base_weights":[1.0783586E-2,1.8273498E-1,-1.339284E-1,-1.6613862E-1,4.3560976E-1,1.7770334E-1,-3.896315E-1,-1.3093926E-1,4.866165E-2,1.7158072E-1,3.167873E-2,1.559041E-1,-5.9196193E-2,-1.5449402E-1,-2.2405557E-2],"categories":[],"categories_nodes":[],"categories_segments":[],"categories_sizes":[],"default_left":[0,0,0,0,0,0,0,0,0,0,0,0,0,0,0],"id":21,"left_children":[1,3,5,7,9,11,13,-1,-1,-1,-1,-1,-1,-1,-1],"loss_changes":[3.536761E-1,6.4305955E-1,6.876737E-1,3.7633666E-1,1.2075621E-1,6.3923204E-1,1.4220029E-1,0E0,0E0,0E0,0E0,0E0,0E0,0E0,0E0],"parents":[2147483647,0,0,1,1,2,2,3,3,4,4,5,5,6,6],"right_children":[2,4,6,8,10,12,14,-1,-1,-1,-1,-1,-1,-1,-1],"split_conditions":[1E0,-4.771063E-1,-7.3196924E-1,3.20181E-1,-1.2724175E-1,4.0966558E-1,3.4940407E-1,-1.3093926E-1,4.866165E-2,1.7158072E-1,3.167873E-2,1.559041E-1,-5.9196193E-2,-1.5449402E-1,-2.2405557E-2],"split_indices":[16,4,4,3,3,3,5,0,0,0,0,0,0,0,0],"split_type":[0,0,0,0,0,0,0,0,0,0,0,0,0,0,0],"sum_hessian":[1.2229796E1,5.4688206E0,6.760976E0,2.4423213E0,3.026499E0,3.1847193E0,3.5762563E0,1.1589059E0,1.2834156E0,1.6229905E0,1.4035085E0,1.4640005E0,1.7207187E0,2.1038065E0,1.4724498E0],"tree_param":{"num_deleted":"0","num_feature":"22","num_nodes":"15","size_leaf_vector":"1"}},{"base_weights":[1.1213532E-2,-1.3836822E-1,1.7135964E-1,-1.2419805E-1,4.5551676E-2,-3.528526E-2,2.8731757E-1,-8.719811E-2,2.02173E-1,1.5280809E-1,1.0031491E-1,3.5950145E-1,-4.2638663E-2,-8.023169E-2,9.524996E-2,1.4685965E-1,1.7970411E-2],"categories":[],"categories_nodes":[],"categories_segments":[],"categories_sizes":[],"default_left":[0,0,0,0,0,0,0,0,0,0,0,0,0,0,0,0,0],"id":22,"left_children":[1,3,5,-1,7,-1,9,-1,11,-1,13,15,-1,-1,-1,-1,-1],"loss_changes":[3.287735E-1,3.8069808E-1,2.5485343E-1,0E0,3.3163825E-1,0E0,1.5644687E-1,0E0,2.7453828E-1,0E0,4.0107867E-1,9.2011034E-2,0E0,0E0,0E0,0E0,0E0],"parents":[2147483647,0,0,1,1,2,2,4,4,6,6,8,8,10,10,11,11],"right_children":[2,4,6,-1,8,-1,10,-1,12,-1,14,16,-1,-1,-1,-1,-1],"split_conditions":[1E0,1E0,-1.0220873E0,-1.2419805E-1,-3.847174E-1,-3.528526E-2,-7.9942E-1,-8.719811E-2,1E0,1.5280809E-1,-3.658673E-1,-1.0196562E-1,-4.2638663E-2,-8.023169E-2,9.524996E-2,1.4685965E-1,1.7970411E-2],"split_indices":[9,19,3,0,2,0,2,0,20,0,2,2,0,0,0,0,0],"split_type":[0,0,0,0,0,0,0,0,0,0,0,0,0,0,0,0,0],"sum_hessian":[1.1734861E1,6.137873E0,5.5969887E0,1.9558545E0,4.1820188E0,1.5986651E0,3.9983234E0,1.0570598E0,3.124959E0,1.0398347E0,2.9584887E0,2.1145644E0,1.0103946E0,1.0125593E0,1.9459295E0,1.0324951E0,1.0820693E0],"tree_param":{"num_deleted":"0","num_feature":"22","num_nodes":"17","size_leaf_vector":"1"}},{"base_weights":[1.1500304E-2,7.175817E-2,-9.920912E-2,-1.1647433E-1,1.7508203E-1,1.2524846E-1,-1.4508685E-1,1.0374731E-2,1.5196073E-1,1.0963161E-1,-4.2485785E-2,-1.7069986E-1,8.457442E-2,6.862322E-2,-1.6010685E-1],"categories":[],"categories_nodes":[],"categories_segments":[],"categories_sizes":[],"default_left":[0,0,0,0,0,0,0,0,0,0,0,0,0,0,0],"id":23,"left_children":[1,3,-1,5,7,9,-1,11,-1,-1,-1,13,-1,-1,-1],"loss_changes":[2.792377E-1,2.4128574E-1,0E0,4.710778E-1,4.168628E-1,2.814498E-1,0E0,3.522942E-1,0E0,0E0,0E0,7.505131E-1,0E0,0E0,0E0],"parents":[2147483647,0,0,1,1,3,3,4,4,5,5,7,7,11,11],"right_children":[2,4,-1,6,8,10,-1,12,-1,-1,-1,14,-1,-1,-1],"split_conditions":[1.2597688E0,1E0,-9.920912E-2,1.0238057E0,3.315871E-1,2.3069647E-1,-1.4508685E-1,3.4940407E-1,1.5196073E-1,1.0963161E-1,-4.2485785E-2,-4.1851044E-1,8.457442E-2,6.862322E-2,-1.6010685E-1],"split_indices":[3,19,0,0,2,3,0,5,0,0,0,0,0,0,0],"split_type":[0,0,0,0,0,0,0,0,0,0,0,0,0,0,0],"sum_hessian":[1.1391195E1,1.03576145E1,1.0335807E0,3.625502E0,6.7321124E0,2.5834649E0,1.042037E0,5.186244E0,1.545868E0,1.1652957E0,1.4181693E0,3.3342116E0,1.8520328E0,1.7634715E0,1.5707401E0],"tree_param":{"num_deleted":"0","num_feature":"22","num_nodes":"15","size_leaf_vector":"1"}},{"base_weights":[5.114334E-3,-5.4657478E-2,9.807214E-2,-2.0651205E-1,1.0538523E-1,9.871745E-3,-3.2767156E-1,-6.227521E-2,9.5077984E-2,-8.060243E-3,-1.567418E-1,5.1594976E-2,-8.948352E-2],"categories":[],"categories_nodes":[],"categories_segments":[],"categories_sizes":[],"default_left":[0,0,0,0,0,0,0,0,0,0,0,0,0],"id":24,"left_children":[1,3,-1,5,7,-1,9,11,-1,-1,-1,-1,-1],"loss_changes":[2.4660872E-1,2.8633422E-1,0E0,1.8262148E-1,2.3120385E-1,0E0,2.2179422E-1,2.8139395E-1,0E0,0E0,0E0,0E0,0E0],"parents":[2147483647,0,0,1,1,3,3,4,4,6,6,7,7],"right_children":[2,4,-1,6,8,-1,10,12,-1,-1,-1,-1,-1],"split_conditions":[1.1370257E0,3.5812134E-1,9.807214E-2,1E0,3.649233E-1,9.871745E-3,-7.513526E-1,1.0238057E0,9.5077984E-2,-8.060243E-3,-1.567418E-1,5.1594976E-2,-8.948352E-2],"split_indices":[4,0,0,13,3,0,0,0,0,0,0,0,0],"split_type":[0,0,0,0,0,0,0,0,0,0,0,0,0],"sum_hessian":[1.0892437E1,9.88625E0,1.006187E0,4.923906E0,4.962344E0,1.8992642E0,3.0246415E0,3.161924E0,1.8004202E0,1.6361247E0,1.3885168E0,1.7229644E0,1.4389595E0],"tree_param":{"num_deleted":"0","num_feature":"22","num_nodes":"13","size_leaf_vector":"1"}},{"base_weights":[3.00129E-3,-1.1082068E-1,1.7309967E-1,1.3443424E-1,-2.8781384E-1,-1.1230213E-1,1.4401013E-1,1.0927693E-1,-5.269909E-2,-1.3920169E-1,1.415122E-2,-1.0575093E-1,4.5673795E-2],"categories":[],"categories_nodes":[],"categories_segments":[],"categories_sizes":[],"default_left":[0,0,0,0,0,0,0,0,0,0,0,0,0],"id":25,"left_children":[1,3,5,7,9,11,-1,-1,-1,-1,-1,-1,-1],"loss_changes":[2.4472496E-1,3.681127E-1,4.9720365E-1,3.3926645E-1,3.0083656E-1,2.717921E-1,0E0,0E0,0E0,0E0,0E0,0E0,0E0],"parents":[2147483647,0,0,1,1,2,2,3,3,4,4,5,5],"right_children":[2,4,6,8,10,12,-1,-1,-1,-1,-1,-1,-1],"split_conditions":[1E0,-7.3196924E-1,-1.3728903E-1,5.8863467E-1,3.4940407E-1,3.20181E-1,1.4401013E-1,1.0927693E-1,-5.269909E-2,-1.3920169E-1,1.415122E-2,-1.0575093E-1,4.5673795E-2],"split_indices":[18,4,4,3,5,3,0,0,0,0,0,0,0],"split_type":[0,0,0,0,0,0,0,0,0,0,0,0,0],"sum_hessian":[1.0649332E1,6.5888615E0,4.060471E0,2.8626356E0,3.7262259E0,2.4326212E0,1.6278498E0,1.5438187E0,1.318817E0,2.1894739E0,1.5367519E0,1.1007258E0,1.3318954E0],"tree_param":{"num_deleted":"0","num_feature":"22","num_nodes":"13","size_leaf_vector":"1"}},{"base_weights":[3.400833E-3,-1.38339E-1,1.5371744E-1,-3.3258566E-1,5.7087373E-2,1.7258625E-2,1.2340183E-1,-2.2309178E-2,-1.24495596E-1,9.206922E-2,-6.934241E-2,9.6150585E-2,-1.6091497E-1,-9.596904E-2,3.181517E-2],"categories":[],"categories_nodes":[],"categories_segments":[],"categories_sizes":[],"default_left":[0,0,0,0,0,0,0,0,0,0,0,0,0,0,0],"id":26,"left_children":[1,3,5,7,9,11,-1,-1,-1,-1,-1,-1,13,-1,-1],"loss_changes":[2.617434E-1,2.5948927E-1,2.0212173E-1,3.986308E-2,3.597873E-1,3.181794E-1,0E0,0E0,0E0,0E0,0E0,0E0,1.9410041E-1,0E0,0E0],"parents":[2147483647,0,0,1,1,2,2,3,3,4,4,5,5,12,12],"right_children":[2,4,6,8,10,12,-1,-1,-1,-1,-1,-1,14,-1,-1],"split_conditions":[1E0,1.3622655E-1,5.442416E-1,-2.9046682E-1,4.3237236E-1,-7.9942E-1,1.2340183E-1,-2.2309178E-2,-1.24495596E-1,9.206922E-2,-6.934241E-2,9.6150585E-2,3.4940407E-1,-9.596904E-2,3.181517E-2],"split_indices":[9,0,1,2,1,2,0,0,0,0,0,0,5,0,0],"split_type":[0,0,0,0,0,0,0,0,0,0,0,0,0,0,0],"sum_hessian":[1.0286958E1,5.335538E0,4.9514194E0,2.32386E0,3.0116782E0,3.934409E0,1.0170105E0,1.0223925E0,1.3014674E0,1.5786661E0,1.4330121E0,1.16049E0,2.773919E0,1.6143064E0,1.1596127E0],"tree_param":{"num_deleted":"0","num_feature":"22","num_nodes":"15","size_leaf_vector":"1"}},{"base_weights":[4.994153E-3,-1.2051566E-1,1.3746451E-1,-1.0239795E-1,3.1423993E-2,-3.25673E-2,2.3904327E-1,-1.6416918E-1,8.711596E-2,5.0335974E-3,1.0127622E-1,3.556706E-2,-1.110991E-1],"categories":[],"categories_nodes":[],"categories_segments":[],"categories_sizes":[],"default_left":[0,0,0,0,0,0,0,0,0,0,0,0,0],"id":27,"left_children":[1,3,5,-1,7,-1,9,11,-1,-1,-1,-1,-1],"loss_changes":[1.9906951E-1,2.1770537E-1,1.7108154E-1,0E0,2.7916327E-1,0E0,9.1204435E-2,2.3290394E-1,0E0,0E0,0E0,0E0,0E0],"parents":[2147483647,0,0,1,1,2,2,4,4,6,6,7,7],"right_children":[2,4,6,-1,8,-1,10,12,-1,-1,-1,-1,-1],"split_conditions":[1E0,1E0,-1.0220873E0,-1.0239795E-1,4.6906874E-1,-3.25673E-2,-7.0516944E-1,-4.1851044E-1,8.711596E-2,5.0335974E-3,1.0127622E-1,3.556706E-2,-1.110991E-1],"split_indices":[9,19,3,0,0,0,2,0,0,0,0,0,0],"split_type":[0,0,0,0,0,0,0,0,0,0,0,0,0],"sum_hessian":[9.976741E0,5.1693006E0,4.80744E0,1.5990187E0,3.5702822E0,1.3847915E0,3.4226482E0,2.2425473E0,1.3277348E0,1.410824E0,2.0118241E0,1.1248616E0,1.1176857E0],"tree_param":{"num_deleted":"0","num_feature":"22","num_nodes":"13","size_leaf_vector":"1"}},{"base_weights":[1.6506321E-3,7.117479E-2,-6.6191755E-2,-6.9151E-3,9.2895284E-2,-8.995916E-2,7.915867E-2,6.052508E-2,-1.7789905E-1,-1.16959944E-1,-6.0542475E-4],"categories":[],"categories_nodes":[],"categories_segments":[],"categories_sizes":[],"default_left":[0,0,0,0,0,0,0,0,0,0,0],"id":28,"left_children":[1,3,-1,5,-1,7,-1,-1,9,-1,-1],"loss_changes":[1.8197632E-1,1.68844E-1,0E0,1.9736882E-1,0E0,2.0661284E-1,0E0,0E0,2.096622E-1,0E0,0E0],"parents":[2147483647,0,0,1,1,3,3,5,5,8,8],"right_children":[2,4,-1,6,-1,8,-1,-1,10,-1,-1],"split_conditions":[9.018306E-1,1.438993E0,-6.6191755E-2,8.7984943E-1,9.2895284E-2,-9.690711E-1,7.915867E-2,6.052508E-2,-3.847174E-1,-1.16959944E-1,-6.0542475E-4],"split_indices":[3,5,0,1,0,2,0,0,2,0,0],"split_type":[0,0,0,0,0,0,0,0,0,0,0],"sum_hessian":[9.758822E0,7.9516473E0,1.8071752E0,6.721628E0,1.2300192E0,5.6550646E0,1.066564E0,1.0101306E0,4.6449337E0,1.5546536E0,3.09028E0],"tree_param":{"num_deleted":"0","num_feature":"22","num_nodes":"11","size_leaf_vector":"1"}},{"base_weights":[5.6360397E-3,-9.869398E-2,1.3866402E-1,-2.0583388E-1,7.064665E-2,-6.705776E-2,9.9236384E-2,-1.1301033E-1,-2.5170395E-2,5.5244636E-2,-8.188873E-2,8.252342E-2,-8.51651E-2],"categories":[],"categories_nodes":[],"categories_segments":[],"categories_sizes":[],"default_left":[0,0,0,0,0,0,0,0,0,0,0,0,0],"id":29,"left_children":[1,3,5,7,-1,9,-1,-1,11,-1,-1,-1,-1],"loss_changes":[1.6042003E-1,2.8154427E-1,2.2229013E-1,1.5915455E-1,0E0,2.1973605E-1,0E0,0E0,3.675912E-1,0E0,0E0,0E0,0E0],"parents":[2147483647,0,0,1,1,2,2,3,3,5,5,8,8],"right_children":[2,4,6,8,-1,10,-1,-1,12,-1,-1,-1,-1],"split_conditions":[1E0,6.272998E-1,3.4940407E-1,-4.978181E-1,7.064665E-2,-6.470149E-1,9.9236384E-2,-1.1301033E-1,-8.31155E-2,5.5244636E-2,-8.188873E-2,8.252342E-2,-8.51651E-2],"split_indices":[12,4,5,2,0,4,0,0,2,0,0,0,0],"split_type":[0,0,0,0,0,0,0,0,0,0,0,0,0],"sum_hessian":[9.572572E0,5.5096264E0,4.062946E0,4.4628825E0,1.0467439E0,2.2763982E0,1.7865475E0,1.7359574E0,2.726925E0,1.0729924E0,1.2034057E0,1.2328695E0,1.4940555E0],"tree_param":{"num_deleted":"0","num_feature":"22","num_nodes":"13","size_leaf_vector":"1"}},{"base_weights":[6.403755E-3,-1.00987084E-1,1.667015E-1,1.3956104E-1,-2.7904058E-1,-9.4269454E-2,1.2389013E-1,9.896764E-2,-3.0092502E-2,-1.22253865E-1,-2.8518355E-3,-3.852239E-2,-3.925488E-3],"categories":[],"categories_nodes":[],"categories_segments":[],"categories_sizes":[],"default_left":[0,0,0,0,0,0,0,0,0,0,0,0,0],"id":30,"left_children":[1,3,5,7,9,11,-1,-1,-1,-1,-1,-1,-1],"loss_changes":[1.9460373E-1,3.3047262E-1,3.294289E-1,1.9570383E-1,1.431134E-1,6.6583995E-3,0E0,0E0,0E0,0E0,0E0,0E0,0E0],"parents":[2147483647,0,0,1,1,2,2,3,3,4,4,5,5],"right_children":[2,4,6,8,10,12,-1,-1,-1,-1,-1,-1,-1],"split_conditions":[1E0,-7.3196924E-1,-3.0719766E-1,4.0966558E-1,3.4940407E-1,-3.507125E-1,1.2389013E-1,9.896764E-2,-3.0092502E-2,-1.22253865E-1,-2.8518355E-3,-3.852239E-2,-3.925488E-3],"split_indices":[18,4,4,3,5,1,0,0,0,0,0,0,0],"split_type":[0,0,0,0,0,0,0,0,0,0,0,0,0],"sum_hessian":[9.326698E0,5.806596E0,3.520103E0,2.5618083E0,3.2447875E0,2.008681E0,1.5114219E0,1.2191447E0,1.3426635E0,1.8507313E0,1.3940562E0,1.0045723E0,1.0041087E0],"tree_param":{"num_deleted":"0","num_feature":"22","num_nodes":"13","size_leaf_vector":"1"}},{"base_weights":[7.128171E-3,-1.18675396E-1,1.3903067E-1,-2.5258204E-1,8.172491E-2,-3.5105508E-2,2.4563971E-1,-9.255801E-2,-2.312478E-2,5.247491E-2,-1.5412195E-2,1.0795639E-1,1.3021669E-2],"categories":[],"categories_nodes":[],"categories_segments":[],"categories_sizes":[],"default_left":[0,0,0,0,0,0,0,0,0,0,0,0,0],"id":31,"left_children":[1,3,5,7,9,-1,11,-1,-1,-1,-1,-1,-1],"loss_changes":[1.8390177E-1,1.7368153E-1,1.7574628E-1,1.2183383E-2,4.669173E-2,0E0,7.96565E-2,0E0,0E0,0E0,0E0,0E0,0E0],"parents":[2147483647,0,0,1,1,2,2,3,3,4,4,6,6],"right_children":[2,4,6,8,10,-1,12,-1,-1,-1,-1,-1,-1],"split_conditions":[1E0,1E0,-1.0220873E0,3.5812134E-1,5.172736E-2,-3.5105508E-2,1E0,-9.255801E-2,-2.312478E-2,5.247491E-2,-1.5412195E-2,1.0795639E-1,1.3021669E-2],"split_indices":[9,14,3,0,3,0,16,0,0,0,0,0,0],"split_type":[0,0,0,0,0,0,0,0,0,0,0,0,0],"sum_hessian":[9.088236E0,4.7029867E0,4.3852496E0,2.663116E0,2.0398705E0,1.2604103E0,3.1248393E0,1.4446175E0,1.2184986E0,1.0150105E0,1.0248601E0,1.4989104E0,1.6259289E0],"tree_param":{"num_deleted":"0","num_feature":"22","num_nodes":"13","size_leaf_vector":"1"}},{"base_weights":[5.839671E-3,-9.901087E-2,1.1512493E-1,-8.722981E-2,3.521396E-2,9.5858134E-2,-1.6240697E-2,1.8284258E-1,-6.0569413E-2,-4.3451373E-2,4.4430397E-2,-5.7094134E-3,8.653595E-2],"categories":[],"categories_nodes":[],"categories_segments":[],"categories_sizes":[],"default_left":[0,0,0,0,0,0,0,0,0,0,0,0,0],"id":32,"left_children":[1,3,5,-1,7,-1,9,11,-1,-1,-1,-1,-1],"loss_changes":[1.2528451E-1,1.5463051E-1,1.4827785E-1,0E0,1.8365464E-1,0E0,1.10121325E-1,7.175775E-2,0E0,0E0,0E0,0E0,0E0],"parents":[2147483647,0,0,1,1,2,2,4,4,6,6,7,7],"right_children":[2,4,6,-1,8,-1,10,12,-1,-1,-1,-1,-1],"split_conditions":[1E0,1E0,-7.9942E-1,-8.722981E-2,1E0,9.5858134E-2,9.676456E-2,1E0,-6.0569413E-2,-4.3451373E-2,4.4430397E-2,-5.7094134E-3,8.653595E-2],"split_indices":[9,19,2,0,20,0,1,8,0,0,0,0,0],"split_type":[0,0,0,0,0,0,0,0,0,0,0,0,0],"sum_hessian":[8.938884E0,4.609984E0,4.3288994E0,1.41798E0,3.192004E0,1.133245E0,3.1956544E0,2.1082563E0,1.0837477E0,1.8593768E0,1.3362777E0,1.0056875E0,1.1025689E0],"tree_param":{"num_deleted":"0","num_feature":"22","num_nodes":"13","size_leaf_vector":"1"}},{"base_weights":[7.1471618E-3,-5.5261835E-2,6.866931E-2,1.3601692E-1,-3.237948E-2,-5.7067122E-2,1.1979868E-1,5.064486E-2,-1.7579624E-1,3.9092153E-2,-1.10016026E-1],"categories":[],"categories_nodes":[],"categories_segments":[],"categories_sizes":[],"default_left":[0,0,0,0,0,0,0,0,0,0,0],"id":33,"left_children":[1,-1,3,5,-1,7,-1,-1,9,-1,-1],"loss_changes":[1.280076E-1,0E0,1.1153571E-1,3.450052E-1,0E0,1.5120487E-1,0E0,0E0,2.500018E-1,0E0,0E0],"parents":[2147483647,0,0,2,2,3,3,5,5,8,8],"right_children":[2,-1,4,6,-1,8,-1,-1,10,-1,-1],"split_conditions":[-9.732474E-1,-5.5261835E-2,1.0238057E0,3.4940407E-1,-3.237948E-2,-1.9661564E-1,1.1979868E-1,5.064486E-2,1E0,3.9092153E-2,-1.10016026E-1],"split_indices":[0,0,0,5,0,0,0,0,19,0,0],"split_type":[0,0,0,0,0,0,0,0,0,0,0],"sum_hessian":[8.798992E0,1.655554E0,7.1434383E0,5.3376904E0,1.805748E0,3.5314126E0,1.8062776E0,1.0713322E0,2.4600804E0,1.066953E0,1.3931274E0],"tree_param":{"num_deleted":"0","num_feature":"22","num_nodes":"11","size_leaf_vector":"1"}},{"base_weights":[6.423443E-3,-8.661698E-2,1.2158106E-1,-1.807981E-1,5.048271E-2,8.8050246E-2,-3.811417E-2,-2.7519894E-1,2.112899E-2,5.1949006E-2,-7.65284E-2,-1.0920563E-1,-3.178183E-2],"categories":[],"categories_nodes":[],"categories_segments":[],"categories_sizes":[],"default_left":[0,0,0,0,0,0,0,0,0,0,0,0,0],"id":34,"left_children":[1,3,5,7,-1,-1,9,11,-1,-1,-1,-1,-1],"loss_changes":[1.1366674E-1,1.722578E-1,1.4071071E-1,1.3313077E-1,0E0,0E0,1.9687115E-1,1.6910583E-2,0E0,0E0,0E0,0E0,0E0],"parents":[2147483647,0,0,1,1,2,2,3,3,6,6,7,7],"right_children":[2,4,6,8,-1,-1,10,12,-1,-1,-1,-1,-1],"split_conditions":[1E0,4.5739114E-1,1E0,8.0191094E-1,5.048271E-2,8.8050246E-2,-8.1692356E-1,-4.978181E-1,2.112899E-2,5.1949006E-2,-7.65284E-2,-1.0920563E-1,-3.178183E-2],"split_indices":[12,4,16,0,0,0,4,2,0,0,0,0,0],"split_type":[0,0,0,0,0,0,0,0,0,0,0,0,0],"sum_hessian":[8.625979E0,4.908249E0,3.71773E0,3.7962496E0,1.1119994E0,1.3868438E0,2.3308861E0,2.6900344E0,1.1062154E0,1.2832778E0,1.0476085E0,1.0095911E0,1.6804433E0],"tree_param":{"num_deleted":"0","num_feature":"22","num_nodes":"13","size_leaf_vector":"1"}},{"base_weights":[3.717311E-3,-1.2738076E-1,7.848268E-2,3.454998E-2,-8.985622E-2,-3.770936E-2,9.9653564E-2,1.14928E-1,-8.865809E-2,8.129208E-2,-5.036615E-2],"categories":[],"categories_nodes":[],"categories_segments":[],"categories_sizes":[],"default_left":[0,0,0,0,0,0,0,0,0,0,0],"id":35,"left_children":[1,3,5,-1,-1,7,-1,9,-1,-1,-1],"loss_changes":[1.0279813E-1,1.9397941E-1,2.084965E-1,0E0,0E0,2.4874412E-1,0E0,2.2856183E-1,0E0,0E0,0E0],"parents":[2147483647,0,0,1,1,2,2,5,5,7,7],"right_children":[2,4,6,-1,-1,8,-1,10,-1,-1,-1],"split_conditions":[1E0,-8.1692356E-1,4.5739114E-1,3.454998E-2,-8.985622E-2,1E0,9.9653564E-2,8.570883E-1,-8.865809E-2,8.129208E-2,-5.036615E-2],"split_indices":[19,4,4,0,0,21,0,3,0,0,0],"split_type":[0,0,0,0,0,0,0,0,0,0,0],"sum_hessian":[8.467943E0,2.819799E0,5.6481442E0,1.3079095E0,1.5118893E0,4.45783E0,1.1903144E0,3.1482055E0,1.3096242E0,2.0557814E0,1.092424E0],"tree_param":{"num_deleted":"0","num_feature":"22","num_nodes":"11","size_leaf_vector":"1"}},{"base_weights":[1.2354269E-3,-1.0578932E-1,1.123053E-1,-7.783674E-2,4.6174273E-2,-2.7950702E-2,1.9772485E-1,7.2216876E-2,-5.6978334E-2,1.8179257E-3,8.358504E-2],"categories":[],"categories_nodes":[],"categories_segments":[],"categories_sizes":[],"default_left":[0,0,0,0,0,0,0,0,0,0,0],"id":36,"left_children":[1,3,5,-1,7,-1,9,-1,-1,-1,-1],"loss_changes":[1.2247082E-1,1.3464326E-1,1.07064456E-1,0E0,2.060264E-1,0E0,5.8586776E-2,0E0,0E0,0E0,0E0],"parents":[2147483647,0,0,1,1,2,2,4,4,6,6],"right_children":[2,4,6,-1,8,-1,10,-1,-1,-1,-1],"split_conditions":[1E0,1.3622655E-1,-1.0220873E0,-7.783674E-2,4.3237236E-1,-2.7950702E-2,-7.0516944E-1,7.2216876E-2,-5.6978334E-2,1.8179257E-3,8.358504E-2],"split_indices":[9,0,3,0,1,0,2,0,0,0,0],"split_type":[0,0,0,0,0,0,0,0,0,0,0],"sum_hessian":[8.303276E0,4.252853E0,4.0504227E0,1.762872E0,2.489981E0,1.1627467E0,2.8876762E0,1.3543894E0,1.1355915E0,1.1760525E0,1.7116237E0],"tree_param":{"num_deleted":"0","num_feature":"22","num_nodes":"11","size_leaf_vector":"1"}},{"base_weights":[2.3148648E-4,5.286098E-2,-4.7798727E-2,1.3469577E-1,-4.83811E-2,-6.910898E-2,2.571375E-1,9.62539E-3,-4.052763E-2,9.651842E-2,1.3981765E-2],"categories":[],"categories_nodes":[],"categories_segments":[],"categories_sizes":[],"default_left":[0,0,0,0,0,0,0,0,0,0,0],"id":37,"left_children":[1,3,-1,5,-1,7,9,-1,-1,-1,-1],"loss_changes":[8.550875E-2,1.5584046E-1,0E0,1.6954972E-1,0E0,2.4838913E-2,3.9554358E-2,0E0,0E0,0E0,0E0],"parents":[2147483647,0,0,1,1,3,3,5,5,6,6],"right_children":[2,4,-1,6,-1,8,10,-1,-1,-1,-1],"split_conditions":[9.018306E-1,1.0238057E0,-4.7798727E-2,-3.847174E-1,-4.83811E-2,5.172736E-2,1E0,9.62539E-3,-4.052763E-2,9.651842E-2,1.3981765E-2],"split_indices":[3,0,0,2,0,3,8,0,0,0,0],"split_type":[0,0,0,0,0,0,0,0,0,0,0],"sum_hessian":[8.17959E0,6.6536565E0,1.5259342E0,5.0823107E0,1.5713457E0,2.0708873E0,3.0114233E0,1.0201306E0,1.0507567E0,1.9002594E0,1.111164E0],"tree_param":{"num_deleted":"0","num_feature":"22","num_nodes":"11","size_leaf_vector":"1"}},{"base_weights":[-1.4810342E-3,-1.3146454E-1,7.339885E-2,2.3137739E-2,-8.119528E-2,-5.42948E-2,8.176975E-2,4.441091E-2,-6.740693E-2],"categories":[],"categories_nodes":[],"categories_segments":[],"categories_sizes":[],"default_left":[0,0,0,0,0,0,0,0,0],"id":38,"left_children":[1,3,5,-1,-1,7,-1,-1,-1],"loss_changes":[9.8097675E-2,1.2770963E-1,1.7775735E-1,0E0,0E0,1.9661765E-1,0E0,0E0,0E0],"parents":[2147483647,0,0,1,1,2,2,5,5],"right_children":[2,4,6,-1,-1,8,-1,-1,-1],"split_conditions":[1E0,-8.1692356E-1,3.4940407E-1,2.3137739E-2,-8.119528E-2,-4.1851044E-1,8.176975E-2,4.441091E-2,-6.740693E-2],"split_indices":[19,4,5,0,0,0,0,0,0],"split_type":[0,0,0,0,0,0,0,0,0],"sum_hessian":[8.087328E0,2.679803E0,5.4075246E0,1.250954E0,1.428849E0,3.7382064E0,1.6693184E0,1.76894E0,1.9692663E0],"tree_param":{"num_deleted":"0","num_feature":"22","num_nodes":"9","size_leaf_vector":"1"}},{"base_weights":[-1.0153399E-3,-5.8026962E-2,5.3274322E-2,-1.6193286E-1,9.668582E-2,2.0184468E-2,-2.4633443E-1,8.104301E-2,-5.274845E-2,-1.1935297E-1,-4.4298633E-3],"categories":[],"categories_nodes":[],"categories_segments":[],"categories_sizes":[],"default_left":[0,0,0,0,0,0,0,0,0,0,0],"id":39,"left_children":[1,3,-1,5,7,-1,9,-1,-1,-1,-1],"loss_changes":[1.0166546E-1,1.3711163E-1,0E0,1.11245915E-1,2.2058302E-1,0E0,1.2713678E-1,0E0,0E0,0E0,0E0],"parents":[2147483647,0,0,1,1,3,3,4,4,6,6],"right_children":[2,4,-1,6,8,-1,10,-1,-1,-1,-1],"split_conditions":[9.917187E-1,3.4940407E-1,5.3274322E-2,-8.559704E-1,9.128583E-1,2.0184468E-2,-1.3966586E-1,8.104301E-2,-5.274845E-2,-1.1935297E-1,-4.4298633E-3],"split_indices":[1,5,0,2,0,0,2,0,0,0,0],"split_type":[0,0,0,0,0,0,0,0,0,0,0],"sum_hessian":[7.9727297E0,6.5552535E0,1.4174763E0,3.8936145E0,2.661639E0,1.1024541E0,2.7911603E0,1.6317284E0,1.0299106E0,1.253192E0,1.5379684E0],"tree_param":{"num_deleted":"0","num_feature":"22","num_nodes":"11","size_leaf_vector":"1"}},{"base_weights":[-3.5405264E-3,-8.6523555E-2,1.2401777E-1,9.4737045E-2,-2.2502778E-1,-3.490621E-2,1.0681382E-1,8.093113E-2,-3.446956E-2,-1.0241709E-1,3.4283402E-3],"categories":[],"categories_nodes":[],"categories_segments":[],"categories_sizes":[],"default_left":[0,0,0,0,0,0,0,0,0,0,0],"id":40,"left_children":[1,3,5,7,9,-1,-1,-1,-1,-1,-1],"loss_changes":[1.0433703E-1,1.70614E-1,2.5874257E-1,1.5133286E-1,1.0480349E-1,0E0,0E0,0E0,0E0,0E0,0E0],"parents":[2147483647,0,0,1,1,2,2,3,3,4,4],"right_children":[2,4,6,8,10,-1,-1,-1,-1,-1,-1],"split_conditions":[1E0,-7.3196924E-1,-3.0719766E-1,4.0966558E-1,3.4940407E-1,-3.490621E-2,1.0681382E-1,8.093113E-2,-3.446956E-2,-1.0241709E-1,3.4283402E-3],"split_indices":[18,4,4,3,5,0,0,0,0,0,0],"split_type":[0,0,0,0,0,0,0,0,0,0,0],"sum_hessian":[7.843178E0,4.9467587E0,2.896419E0,2.2795322E0,2.6672266E0,1.6674963E0,1.2289227E0,1.0859629E0,1.1935693E0,1.4901332E0,1.1770934E0],"tree_param":{"num_deleted":"0","num_feature":"22","num_nodes":"11","size_leaf_vector":"1"}},{"base_weights":[-2.5639846E-4,-1.0701874E-1,1.12659335E-1,-8.379855E-2,1.9710286E-2,2.128513E-1,-2.2128623E-2,-5.0191626E-2,7.824739E-2,9.9554956E-2,-3.3750778E-4],"categories":[],"categories_nodes":[],"categories_segments":[],"categories_sizes":[],"default_left":[0,0,0,0,0,0,0,0,0,0,0],"id":41,"left_children":[1,3,5,-1,7,9,-1,-1,-1,-1,-1],"loss_changes":[1.1667917E-1,1.14114925E-1,1.0357891E-1,0E0,2.1498775E-1,8.484858E-2,0E0,0E0,0E0,0E0,0E0],"parents":[2147483647,0,0,1,1,2,2,4,4,5,5],"right_children":[2,4,6,-1,8,10,-1,-1,-1,-1,-1],"split_conditions":[1E0,1E0,1.9963628E-1,-8.379855E-2,4.6906874E-1,1E0,-2.2128623E-2,-5.0191626E-2,7.824739E-2,9.9554956E-2,-3.3750778E-4],"split_indices":[9,19,2,0,0,13,0,0,0,0,0],"split_type":[0,0,0,0,0,0,0,0,0,0,0],"sum_hessian":[7.6786585E0,3.9737163E0,3.704942E0,1.1737131E0,2.800003E0,2.3175843E0,1.3873577E0,1.7493047E0,1.0506985E0,1.1353247E0,1.1822596E0],"tree_param":{"num_deleted":"0","num_feature":"22","num_nodes":"11","size_leaf_vector":"1"}},{"base_weights":[2.3875695E-3,-8.8159956E-2,9.6617E-2,-5.9836067E-2,2.286149E-2,6.708035E-2,-3.9448462E-2,4.588536E-2,-6.412482E-2],"categories":[],"categories_nodes":[],"categories_segments":[],"categories_sizes":[],"default_left":[0,0,0,0,0,0,0,0,0],"id":42,"left_children":[1,3,5,-1,-1,-1,7,-1,-1],"loss_changes":[8.136984E-2,1.044164E-1,8.9358866E-2,0E0,0E0,0E0,1.3666007E-1,0E0,0E0],"parents":[2147483647,0,0,1,1,2,2,6,6],"right_children":[2,4,6,-1,-1,-1,8,-1,-1],"split_conditions":[1E0,1E0,-7.3196924E-1,-5.9836067E-2,2.286149E-2,6.708035E-2,1E0,4.588536E-2,-6.412482E-2],"split_indices":[9,14,4,0,0,0,16,0,0],"split_type":[0,0,0,0,0,0,0,0,0],"sum_hessian":[7.538447E0,3.8771772E0,3.6612697E0,2.1845264E0,1.6926507E0,1.5610615E0,2.100208E0,1.0564967E0,1.0437114E0],"tree_param":{"num_deleted":"0","num_feature":"22","num_nodes":"9","size_leaf_vector":"1"}},{"base_weights":[2.9772217E-3,-1.0247228E-1,8.868232E-2,2.9469458E-2,-7.02536E-2,-3.1320464E-2,1.761222E-1,-1.3566643E-3,9.622619E-2],"categories":[],"categories_nodes":[],"categories_segments":[],"categories_sizes":[],"default_left":[0,0,0,0,0,0,0,0,0],"id":43,"left_children":[1,3,5,-1,-1,-1,7,-1,-1],"loss_changes":[8.539494E-2,1.3533634E-1,1.0607576E-1,0E0,0E0,0E0,1.04574956E-1,0E0,0E0],"parents":[2147483647,0,0,1,1,2,2,6,6],"right_children":[2,4,6,-1,-1,-1,8,-1,-1],"split_conditions":[-1.2697397E-1,-6.4040524E-1,2.5279153E-2,2.9469458E-2,-7.02536E-2,-3.1320464E-2,3.649233E-1,-1.3566643E-3,9.622619E-2],"split_indices":[1,0,0,0,0,0,3,0,0],"split_type":[0,0,0,0,0,0,0,0,0],"sum_hessian":[7.4433684E0,3.2495553E0,4.193813E0,1.3882307E0,1.8613247E0,1.2467566E0,2.9470565E0,1.7411281E0,1.2059284E0],"tree_param":{"num_deleted":"0","num_feature":"22","num_nodes":"9","size_leaf_vector":"1"}},{"base_weights":[4.8213406E-3,-3.8985386E-2,6.7971356E-2,9.512458E-2,-5.782832E-2,-1.5849042E-1,5.2224908E-2,2.876812E-2,-1.0191364E-1],"categories":[],"categories_nodes":[],"categories_segments":[],"categories_sizes":[],"default_left":[0,0,0,0,0,0,0,0,0],"id":44,"left_children":[1,-1,3,-1,5,7,-1,-1,-1],"loss_changes":[8.016283E-2,0E0,2.1775602E-1,0E0,1.4604165E-1,2.1981895E-1,0E0,0E0,0E0],"parents":[2147483647,0,0,2,2,4,4,5,5],"right_children":[2,-1,4,-1,6,8,-1,-1,-1],"split_conditions":[-6.109188E-1,-3.8985386E-2,-1.9621621E-1,9.512458E-2,2.8748253E-1,-8.1692356E-1,5.2224908E-2,2.876812E-2,-1.0191364E-1],"split_indices":[2,0,2,0,4,4,0,0,0],"split_type":[0,0,0,0,0,0,0,0,0],"sum_hessian":[7.381008E0,2.0175028E0,5.363505E0,1.2894951E0,4.07401E0,3.0616696E0,1.0123403E0,1.4696059E0,1.5920638E0],"tree_param":{"num_deleted":"0","num_feature":"22","num_nodes":"9","size_leaf_vector":"1"}},{"base_weights":[7.568514E-3,6.399525E-2,-4.7926772E-2,1.3371907E-1,-3.704751E-2,-2.4080532E-2,2.6321965E-1,9.199646E-2,2.2131909E-2],"categories":[],"categories_nodes":[],"categories_segments":[],"categories_sizes":[],"default_left":[0,0,0,0,0,0,0,0,0],"id":45,"left_children":[1,3,-1,5,-1,-1,7,-1,-1],"loss_changes":[8.833537E-2,1.0672244E-1,0E0,1.7382604E-1,0E0,0E0,7.547468E-3,0E0,0E0],"parents":[2147483647,0,0,1,1,3,3,6,6],"right_children":[2,4,-1,6,-1,-1,8,-1,-1],"split_conditions":[9.018306E-1,1.0238057E0,-4.7926772E-2,-3.847174E-1,-3.704751E-2,-2.4080532E-2,1E0,9.199646E-2,2.2131909E-2],"split_indices":[3,0,0,2,0,0,8,0,0],"split_type":[0,0,0,0,0,0,0,0,0],"sum_hessian":[7.2731743E0,5.9007907E0,1.3723832E0,4.510267E0,1.3905241E0,1.8437738E0,2.666493E0,1.6658658E0,1.0006273E0],"tree_param":{"num_deleted":"0","num_feature":"22","num_nodes":"9","size_leaf_vector":"1"}},{"base_weights":[6.1477995E-3,-6.562757E-2,1.1412867E-1,7.9922445E-2,-1.7918687E-1,-2.6485592E-2,9.323898E-2,7.302953E-2,-3.453278E-2,-8.860184E-2,1.1416407E-2],"categories":[],"categories_nodes":[],"categories_segments":[],"categories_sizes":[],"default_left":[0,0,0,0,0,0,0,0,0,0,0],"id":46,"left_children":[1,3,5,7,9,-1,-1,-1,-1,-1,-1],"loss_changes":[7.102068E-2,1.06202915E-1,1.7226717E-1,1.277675E-1,9.781674E-2,0E0,0E0,0E0,0E0,0E0,0E0],"parents":[2147483647,0,0,1,1,2,2,3,3,4,4],"right_children":[2,4,6,8,10,-1,-1,-1,-1,-1,-1],"split_conditions":[1E0,-7.3196924E-1,-3.0719766E-1,4.0966558E-1,3.4940407E-1,-2.6485592E-2,9.323898E-2,7.302953E-2,-3.453278E-2,-8.860184E-2,1.1416407E-2],"split_indices":[18,4,4,3,5,0,0,0,0,0,0],"split_type":[0,0,0,0,0,0,0,0,0,0,0],"sum_hessian":[7.1971207E0,4.5589776E0,2.638143E0,2.1278708E0,2.4311068E0,1.5716591E0,1.0664839E0,1.0224833E0,1.1053874E0,1.3498722E0,1.0812345E0],"tree_param":{"num_deleted":"0","num_feature":"22","num_nodes":"11","size_leaf_vector":"1"}},{"base_weights":[7.884819E-3,-8.803242E-2,1.05148755E-1,-5.7951972E-2,2.0042477E-2,1.9739671E-1,-2.0881874E-2,9.260751E-2,-1.8185818E-5],"categories":[],"categories_nodes":[],"categories_segments":[],"categories_sizes":[],"default_left":[0,0,0,0,0,0,0,0,0],"id":47,"left_children":[1,3,5,-1,-1,7,-1,-1,-1],"loss_changes":[8.454808E-2,8.791858E-2,8.568382E-2,0E0,0E0,6.9938056E-2,0E0,0E0,0E0],"parents":[2147483647,0,0,1,1,2,2,5,5],"right_children":[2,4,6,-1,-1,8,-1,-1,-1],"split_conditions":[1E0,1E0,1.9963628E-1,-5.7951972E-2,2.0042477E-2,1E0,-2.0881874E-2,9.260751E-2,-1.8185818E-5],"split_indices":[9,14,2,0,0,13,0,0,0],"split_type":[0,0,0,0,0,0,0,0,0],"sum_hessian":[7.0704527E0,3.607658E0,3.462795E0,2.001218E0,1.60644E0,2.1816201E0,1.2811748E0,1.0349476E0,1.1466725E0],"tree_param":{"num_deleted":"0","num_feature":"22","num_nodes":"9","size_leaf_vector":"1"}},{"base_weights":[9.87606E-3,-3.954411E-2,4.671762E-2,-1.4683233E-1,1.1098034E-1,-1.7068591E-2,-7.565085E-2,-3.8396757E-2,8.042446E-2,2.4242597E-2,-3.23024E-2],"categories":[],"categories_nodes":[],"categories_segments":[],"categories_sizes":[],"default_left":[0,0,0,0,0,0,0,0,0,0,0],"id":48,"left_children":[1,3,-1,5,7,9,-1,-1,-1,-1,-1],"loss_changes":[6.375874E-2,1.2556821E-1,0E0,5.557944E-2,1.6140461E-1,3.5620783E-2,0E0,0E0,0E0,0E0,0E0],"parents":[2147483647,0,0,1,1,3,3,4,4,5,5],"right_children":[2,4,-1,6,8,10,-1,-1,-1,-1,-1],"split_conditions":[9.917187E-1,3.4940407E-1,4.671762E-2,4.0966558E-1,1E0,2.5279153E-2,-7.565085E-2,-3.8396757E-2,8.042446E-2,2.4242597E-2,-3.23024E-2],"split_indices":[1,5,0,3,19,0,0,0,0,0,0],"split_type":[0,0,0,0,0,0,0,0,0,0,0],"sum_hessian":[6.991333E0,5.7663207E0,1.2250127E0,3.3809988E0,2.3853219E0,2.0355115E0,1.3454874E0,1.0196382E0,1.3656836E0,1.0304737E0,1.0050378E0],"tree_param":{"num_deleted":"0","num_feature":"22","num_nodes":"11","size_leaf_vector":"1"}},{"base_weights":[7.65003E-3,-7.517629E-2,9.205105E-2,-5.8279295E-2,4.728655E-2,5.9999548E-2,-9.566911E-3,-6.8674292E-3,2.7916042E-2],"categories":[],"categories_nodes":[],"categories_segments":[],"categories_sizes":[],"default_left":[0,0,0,0,0,0,0,0,0],"id":49,"left_children":[1,3,5,-1,7,-1,-1,-1,-1],"loss_changes":[6.204662E-2,7.525788E-2,6.464795E-2,0E0,1.1887108E-2,0E0,0E0,0E0,0E0],"parents":[2147483647,0,0,1,1,2,2,4,4],"right_children":[2,4,6,-1,8,-1,-1,-1,-1],"split_conditions":[1E0,1.3622655E-1,-7.3196924E-1,-5.8279295E-2,1.859542E-1,5.9999548E-2,-9.566911E-3,-6.8674292E-3,2.7916042E-2],"split_indices":[9,0,4,0,3,0,0,0,0],"split_type":[0,0,0,0,0,0,0,0,0],"sum_hessian":[6.885783E0,3.5304744E0,3.3553088E0,1.4926482E0,2.037826E0,1.465369E0,1.8899399E0,1.001687E0,1.036139E0],"tree_param":{"num_deleted":"0","num_feature":"22","num_nodes":"9","size_leaf_vector":"1"}},{"base_weights":[6.9868034E-3,-1.0334807E-1,6.37991E-2,6.8464265E-3,-5.3730465E-2,9.092053E-2,-5.059119E-2,2.7526436E-2,-1.3597865E-1,1.40863E-2,-7.082573E-2],"categories":[],"categories_nodes":[],"categories_segments":[],"categories_sizes":[],"default_left":[0,0,0,0,0,0,0,0,0,0,0],"id":50,"left_children":[1,3,5,-1,-1,-1,7,-1,9,-1,-1],"loss_changes":[5.5754967E-2,3.3213764E-2,1.7395233E-1,0E0,0E0,0E0,7.054902E-2,0E0,7.315324E-2,0E0,0E0],"parents":[2147483647,0,0,1,1,2,2,6,6,8,8],"right_children":[2,4,6,-1,-1,-1,8,-1,10,-1,-1],"split_conditions":[-4.978181E-1,-8.748205E-1,-1.9621621E-1,6.8464265E-3,-5.3730465E-2,9.092053E-2,-8.1692356E-1,2.7526436E-2,1E0,1.40863E-2,-7.082573E-2],"split_indices":[2,2,2,0,0,0,4,0,16,0,0],"split_type":[0,0,0,0,0,0,0,0,0,0,0],"sum_hessian":[6.8427725E0,2.0474043E0,4.795368E0,1.0302445E0,1.0171597E0,1.0175472E0,3.777821E0,1.3885148E0,2.3893063E0,1.0328548E0,1.3564515E0],"tree_param":{"num_deleted":"0","num_feature":"22","num_nodes":"11","size_leaf_vector":"1"}},{"base_weights":[6.8388083E-3,5.4854654E-2,-4.0271062E-2,-4.4255577E-2,6.171428E-2,-1.5681165E-1,3.8462847E-2,1.1267727E-2,-8.145595E-2],"categories":[],"categories_nodes":[],"categories_segments":[],"categories_sizes":[],"default_left":[0,0,0,0,0,0,0,0,0],"id":51,"left_children":[1,3,-1,5,-1,7,-1,-1,-1],"loss_changes":[6.003321E-2,1.0645353E-1,0E0,1.12357706E-1,0E0,8.434228E-2,0E0,0E0,0E0],"parents":[2147483647,0,0,1,1,3,3,5,5],"right_children":[2,4,-1,6,-1,8,-1,-1,-1],"split_conditions":[9.018306E-1,3.649233E-1,-4.0271062E-2,2.8748253E-1,6.171428E-2,-7.3196924E-1,3.8462847E-2,1.1267727E-2,-8.145595E-2],"split_indices":[3,3,0,4,0,4,0,0,0],"split_type":[0,0,0,0,0,0,0,0,0],"sum_hessian":[6.7754235E0,5.510921E0,1.2645024E0,3.7523704E0,1.7585509E0,2.3254633E0,1.4269071E0,1.112657E0,1.2128065E0],"tree_param":{"num_deleted":"0","num_feature":"22","num_nodes":"9","size_leaf_vector":"1"}},{"base_weights":[3.3924496E-3,-3.3825714E-2,5.9271246E-2,7.187021E-2,-3.6976427E-2,-4.747978E-2,4.837281E-2,-2.8110722E-2,4.9031105E-2],"categories":[],"categories_nodes":[],"categories_segments":[],"categories_sizes":[],"default_left":[0,0,0,0,0,0,0,0,0],"id":52,"left_children":[1,-1,3,-1,5,-1,7,-1,-1],"loss_changes":[5.6729417E-2,0E0,1.1057958E-1,0E0,5.618577E-2,0E0,7.2819225E-2,0E0,0E0],"parents":[2147483647,0,0,2,2,4,4,6,6],"right_children":[2,-1,4,-1,6,-1,8,-1,-1],"split_conditions":[-6.109188E-1,-3.3825714E-2,-1.9621621E-1,7.187021E-2,1.3622655E-1,-4.747978E-2,1.859542E-1,-2.8110722E-2,4.9031105E-2],"split_indices":[2,0,2,0,0,0,3,0,0],"split_type":[0,0,0,0,0,0,0,0,0],"sum_hessian":[6.7112775E0,1.8494236E0,4.861854E0,1.1738554E0,3.6879985E0,1.1704057E0,2.5175927E0,1.2096418E0,1.307951E0],"tree_param":{"num_deleted":"0","num_feature":"22","num_nodes":"9","size_leaf_vector":"1"}},{"base_weights":[3.9273733E-3,-7.324279E-2,8.2094535E-2,-6.603823E-2,3.565274E-2,5.393036E-2,-8.116049E-3,-2.6674079E-2,4.2094674E-2],"categories":[],"categories_nodes":[],"categories_segments":[],"categories_sizes":[],"default_left":[0,0,0,0,0,0,0,0,0],"id":53,"left_children":[1,3,5,-1,7,-1,-1,-1,-1],"loss_changes":[5.2216753E-2,7.7952385E-2,5.04568E-2,0E0,5.651026E-2,0E0,0E0,0E0,0E0],"parents":[2147483647,0,0,1,1,2,2,4,4],"right_children":[2,4,6,-1,8,-1,-1,-1,-1],"split_conditions":[1E0,1E0,1E0,-6.603823E-2,1.3622655E-1,5.393036E-2,-8.116049E-3,-2.6674079E-2,4.2094674E-2],"split_indices":[9,19,10,0,0,0,0,0,0],"split_type":[0,0,0,0,0,0,0,0,0],"sum_hessian":[6.6595807E0,3.382863E0,3.2767177E0,1.005343E0,2.37752E0,1.3878039E0,1.8889139E0,1.1542476E0,1.2232723E0],"tree_param":{"num_deleted":"0","num_feature":"22","num_nodes":"9","size_leaf_vector":"1"}},{"base_weights":[2.0800752E-3,-6.340464E-2,1.0229122E-1,6.809498E-2,-6.605108E-2,7.3682144E-2,-2.409305E-2,-2.7769376E-2,5.1618624E-2],"categories":[],"categories_nodes":[],"categories_segments":[],"categories_sizes":[],"default_left":[0,0,0,0,0,0,0,0,0],"id":54,"left_children":[1,3,5,7,-1,-1,-1,-1,-1],"loss_changes":[5.6369394E-2,1.2249124E-1,1.08358055E-1,7.605288E-2,0E0,0E0,0E0,0E0,0E0],"parents":[2147483647,0,0,1,1,2,2,3,3],"right_children":[2,4,6,8,-1,-1,-1,-1,-1],"split_conditions":[3.4940407E-1,4.5440787E-1,2.184864E-1,1E0,-6.605108E-2,7.3682144E-2,-2.409305E-2,-2.7769376E-2,5.1618624E-2],"split_indices":[5,3,2,10,0,0,0,0,0],"split_type":[0,0,0,0,0,0,0,0,0],"sum_hessian":[6.6015534E0,4.2146845E0,2.3868692E0,2.5996482E0,1.615036E0,1.1439707E0,1.2428983E0,1.0644444E0,1.5352038E0],"tree_param":{"num_deleted":"0","num_feature":"22","num_nodes":"9","size_leaf_vector":"1"}},{"base_weights":[2.4367992E-3,-3.2259375E-2,6.0834784E-2,-3.57122E-2,1.2883432E-1,7.595991E-2,-1.03626065E-2],"categories":[],"categories_nodes":[],"categories_segments":[],"categories_sizes":[],"default_left":[0,0,0,0,0,0,0],"id":55,"left_children":[1,-1,3,-1,5,-1,-1],"loss_changes":[5.4879867E-2,0E0,8.32819E-2,0E0,1.0040874E-1,0E0,0E0],"parents":[2147483647,0,0,2,2,4,4],"right_children":[2,-1,4,-1,6,-1,-1],"split_conditions":[-4.978181E-1,-3.2259375E-2,-4.404377E-1,-3.57122E-2,1.6193604E-1,7.595991E-2,-1.03626065E-2],"split_indices":[2,0,3,0,2,0,0],"split_type":[0,0,0,0,0,0,0],"sum_hessian":[6.527076E0,1.972101E0,4.554975E0,1.0436512E0,3.5113237E0,1.6815212E0,1.8298024E0],"tree_param":{"num_deleted":"0","num_feature":"22","num_nodes":"7","size_leaf_vector":"1"}},{"base_weights":[1.4798223E-3,-8.208968E-2,8.653669E-2,-5.4466393E-2,7.1396674E-3,5.2102372E-2,-5.041817E-3],"categories":[],"categories_nodes":[],"categories_segments":[],"categories_sizes":[],"default_left":[0,0,0,0,0,0,0],"id":56,"left_children":[1,3,5,-1,-1,-1,-1],"loss_changes":[6.036434E-2,4.953207E-2,4.0741928E-2,0E0,0E0,0E0,0E0],"parents":[2147483647,0,0,1,1,2,2],"right_children":[2,4,6,-1,-1,-1,-1],"split_conditions":[1E0,1.3622655E-1,1E0,-5.4466393E-2,7.1396674E-3,5.2102372E-2,-5.041817E-3],"split_indices":[9,0,10,0,0,0,0],"split_type":[0,0,0,0,0,0,0],"sum_hessian":[6.492877E0,3.29267E0,3.200207E0,1.3293662E0,1.9633037E0,1.3669965E0,1.8332105E0],"tree_param":{"num_deleted":"0","num_feature":"22","num_nodes":"7","size_leaf_vector":"1"}},{"base_weights":[9.5168484E-4,-6.910011E-2,7.208732E-2,-4.3189883E-2,1.4083395E-2,4.5743164E-2,-9.400795E-3],"categories":[],"categories_nodes":[],"categories_segments":[],"categories_sizes":[],"default_left":[0,0,0,0,0,0,0],"id":57,"left_children":[1,3,5,-1,-1,-1,-1],"loss_changes":[4.2119533E-2,4.3816805E-2,3.959103E-2,0E0,0E0,0E0,0E0],"parents":[2147483647,0,0,1,1,2,2],"right_children":[2,4,6,-1,-1,-1,-1],"split_conditions":[1E0,1E0,1E0,-4.3189883E-2,1.4083395E-2,4.5743164E-2,-9.400795E-3],"split_indices":[9,14,16,0,0,0,0],"split_type":[0,0,0,0,0,0,0],"sum_hessian":[6.4527307E0,3.26555E0,3.1871808E0,1.8387027E0,1.4268472E0,1.526413E0,1.6607677E0],"tree_param":{"num_deleted":"0","num_feature":"22","num_nodes":"7","size_leaf_vector":"1"}},{"base_weights":[1.6252537E-3,-3.7037216E-2,4.4823658E-2,-3.6720175E-2,1.19445674E-1,2.3209895E-1,-3.5159826E-2,1.0371307E-1,5.1671104E-3],"categories":[],"categories_nodes":[],"categories_segments":[],"categories_sizes":[],"default_left":[0,0,0,0,0,0,0,0,0],"id":58,"left_children":[1,-1,3,-1,5,7,-1,-1,-1],"loss_changes":[4.5576207E-2,0E0,9.2510864E-2,0E0,1.5575306E-1,8.1988946E-2,0E0,0E0,0E0],"parents":[2147483647,0,0,2,2,4,4,5,5],"right_children":[2,-1,4,-1,6,8,-1,-1,-1],"split_conditions":[-9.732474E-1,-3.7037216E-2,-3.847174E-1,-3.6720175E-2,9.128583E-1,2.3069647E-1,-3.5159826E-2,1.0371307E-1,5.1671104E-3],"split_indices":[0,0,2,0,0,3,0,0,0],"split_type":[0,0,0,0,0,0,0,0,0],"sum_hessian":[6.4106336E0,1.1687007E0,5.241933E0,1.4198487E0,3.8220844E0,2.6024275E0,1.219657E0,1.3040483E0,1.2983792E0],"tree_param":{"num_deleted":"0","num_feature":"22","num_nodes":"9","size_leaf_vector":"1"}},{"base_weights":[1.4551001E-3,-5.646919E-2,9.12782E-2,3.0917445E-2,-1.6520552E-1,-2.6293341E-2,7.186541E-2,-9.9096954E-2,2.032479E-2],"categories":[],"categories_nodes":[],"categories_segments":[],"categories_sizes":[],"default_left":[0,0,0,0,0,0,0,0,0],"id":59,"left_children":[1,3,5,-1,7,-1,-1,-1,-1],"loss_changes":[4.331656E-2,1.0509269E-1,1.0742232E-1,0E0,1.5328535E-1,0E0,0E0,0E0,0E0],"parents":[2147483647,0,0,1,1,2,2,4,4],"right_children":[2,4,6,-1,8,-1,-1,-1,-1],"split_conditions":[3.4940407E-1,-3.0756304E-1,-3.9215198E-1,3.0917445E-2,-1.0196562E-1,-2.6293341E-2,7.186541E-2,-9.9096954E-2,2.032479E-2],"split_indices":[5,0,4,0,2,0,0,0,0],"split_type":[0,0,0,0,0,0,0,0,0],"sum_hessian":[6.3347297E0,4.0769515E0,2.2577782E0,1.6736927E0,2.403259E0,1.2084402E0,1.049338E0,1.1618046E0,1.2414544E0],"tree_param":{"num_deleted":"0","num_feature":"22","num_nodes":"9","size_leaf_vector":"1"}},{"base_weights":[4.800625E-4,3.7987873E-2,-4.529735E-2,-6.129242E-2,2.771284E-2,9.665603E-2,-3.1477056E-2,7.489565E-2,-2.4941014E-2],"categories":[],"categories_nodes":[],"categories_segments":[],"categories_sizes":[],"default_left":[0,0,0,0,0,0,0,0,0],"id":60,"left_children":[1,-1,3,-1,5,7,-1,-1,-1],"loss_changes":[4.7592964E-2,0E0,7.595628E-2,0E0,5.6139454E-2,1.2611753E-1,0E0,0E0,0E0],"parents":[2147483647,0,0,2,2,4,4,5,5],"right_children":[2,-1,4,-1,6,8,-1,-1,-1],"split_conditions":[-7.9942E-1,3.7987873E-2,-3.847174E-1,-6.129242E-2,9.128583E-1,2.3069647E-1,-3.1477056E-2,7.489565E-2,-2.4941014E-2],"split_indices":[2,0,2,0,0,3,0,0,0],"split_type":[0,0,0,0,0,0,0,0,0],"sum_hessian":[6.248433E0,1.1934851E0,5.054948E0,1.0247561E0,4.0301914E0,2.8302982E0,1.1998934E0,1.3191779E0,1.5111204E0],"tree_param":{"num_deleted":"0","num_feature":"22","num_nodes":"9","size_leaf_vector":"1"}},{"base_weights":[-2.8007675E-4,-7.44281E-2,7.485888E-2,-5.0860524E-2,1.01479385E-2,4.4993885E-2,-1.784089E-2],"categories":[],"categories_nodes":[],"categories_segments":[],"categories_sizes":[],"default_left":[0,0,0,0,0,0,0],"id":61,"left_children":[1,3,5,-1,-1,-1,-1],"loss_changes":[4.562622E-2,4.815294E-2,4.9982518E-2,0E0,0E0,0E0,0E0],"parents":[2147483647,0,0,1,1,2,2],"right_children":[2,4,6,-1,-1,-1,-1],"split_conditions":[1E0,2.4717395E-1,1.9963628E-1,-5.0860524E-2,1.01479385E-2,4.4993885E-2,-1.784089E-2],"split_indices":[9,0,2,0,0,0,0],"split_type":[0,0,0,0,0,0,0],"sum_hessian":[6.18932E0,3.1199634E0,3.0693567E0,1.3594987E0,1.7604648E0,1.8937812E0,1.1755755E0],"tree_param":{"num_deleted":"0","num_feature":"22","num_nodes":"7","size_leaf_vector":"1"}},{"base_weights":[-2.1430647E-3,-7.029334E-2,7.9305604E-2,-1.5266779E-1,2.9836081E-2,-2.2844592E-2,7.161107E-2,1.7625974E-2,-8.100592E-2],"categories":[],"categories_nodes":[],"categories_segments":[],"categories_sizes":[],"default_left":[0,0,0,0,0,0,0,0,0],"id":62,"left_children":[1,3,5,7,-1,-1,-1,-1,-1],"loss_changes":[4.528366E-2,7.705717E-2,1.10573694E-1,9.9568345E-2,0E0,0E0,0E0,0E0,0E0],"parents":[2147483647,0,0,1,1,2,2,3,3],"right_children":[2,4,6,8,-1,-1,-1,-1,-1],"split_conditions":[3.649233E-1,4.5739114E-1,4.6906874E-1,-7.3196924E-1,2.9836081E-2,-2.2844592E-2,7.161107E-2,1.7625974E-2,-8.100592E-2],"split_indices":[3,4,0,4,0,0,0,0,0],"split_type":[0,0,0,0,0,0,0,0,0],"sum_hessian":[6.1538105E0,3.4249907E0,2.7288198E0,2.373701E0,1.0512897E0,1.6459075E0,1.0829122E0,1.0255014E0,1.3481997E0],"tree_param":{"num_deleted":"0","num_feature":"22","num_nodes":"9","size_leaf_vector":"1"}},{"base_weights":[5.4291077E-4,-5.8602177E-2,8.937712E-2,6.1557975E-2,-6.673145E-2,-3.049611E-2,7.418783E-2,-2.4803257E-2,5.4021806E-2],"categories":[],"categories_nodes":[],"categories_segments":[],"categories_sizes":[],"default_left":[0,0,0,0,0,0,0,0,0],"id":63,"left_children":[1,3,5,7,-1,-1,-1,-1,-1],"loss_changes":[4.2499855E-2,1.09397516E-1,1.2259443E-1,7.621749E-2,0E0,0E0,0E0,0E0,0E0],"parents":[2147483647,0,0,1,1,2,2,3,3],"right_children":[2,4,6,8,-1,-1,-1,-1,-1],"split_conditions":[1E0,4.3237236E-1,-4.771063E-1,3.4940407E-1,-6.673145E-2,-3.049611E-2,7.418783E-2,-2.4803257E-2,5.4021806E-2],"split_indices":[18,1,4,5,0,0,0,0,0],"split_type":[0,0,0,0,0,0,0,0,0],"sum_hessian":[6.0920067E0,3.8614228E0,2.230584E0,2.5877748E0,1.273648E0,1.170684E0,1.0598999E0,1.3036205E0,1.2841543E0],"tree_param":{"num_deleted":"0","num_feature":"22","num_nodes":"9","size_leaf_vector":"1"}},{"base_weights":[1.3327118E-3,-6.777515E-2,7.0951596E-2,-4.8665293E-2,6.1832583E-3,4.759142E-2,-1.000541E-2],"categories":[],"categories_nodes":[],"categories_segments":[],"categories_sizes":[],"default_left":[0,0,0,0,0,0,0],"id":64,"left_children":[1,3,5,-1,-1,-1,-1],"loss_changes":[3.8519185E-2,3.696403E-2,4.168225E-2,0E0,0E0,0E0,0E0],"parents":[2147483647,0,0,1,1,2,2],"right_children":[2,4,6,-1,-1,-1,-1],"split_conditions":[1E0,-3.507125E-1,-7.3196924E-1,-4.8665293E-2,6.1832583E-3,4.759142E-2,-1.000541E-2],"split_indices":[9,1,4,0,0,0,0],"split_type":[0,0,0,0,0,0,0],"sum_hessian":[6.0066395E0,3.0276735E0,2.978966E0,1.0598587E0,1.9678149E0,1.3353856E0,1.6435806E0],"tree_param":{"num_deleted":"0","num_feature":"22","num_nodes":"7","size_leaf_vector":"1"}},{"base_weights":[1.9261117E-4,-3.508197E-2,4.2273253E-2,-2.9127691E-2,1.02957845E-1,2.0326535E-1,-3.1438015E-2,9.270452E-2,6.8405755E-3],"categories":[],"categories_nodes":[],"categories_segments":[],"categories_sizes":[],"default_left":[0,0,0,0,0,0,0,0,0],"id":65,"left_children":[1,-1,3,-1,5,7,-1,-1,-1],"loss_changes":[3.935454E-2,0E0,5.9646368E-2,0E0,1.1664212E-1,5.832769E-2,0E0,0E0,0E0],"parents":[2147483647,0,0,2,2,4,4,5,5],"right_children":[2,-1,4,-1,6,8,-1,-1,-1],"split_conditions":[-9.732474E-1,-3.508197E-2,-3.847174E-1,-2.9127691E-2,9.128583E-1,1.6193604E-1,-3.1438015E-2,9.270452E-2,6.8405755E-3],"split_indices":[0,0,2,0,0,2,0,0,0],"split_type":[0,0,0,0,0,0,0,0,0],"sum_hessian":[5.9813423E0,1.1107088E0,4.870633E0,1.2954987E0,3.5751345E0,2.425591E0,1.1495435E0,1.0802399E0,1.3453511E0],"tree_param":{"num_deleted":"0","num_feature":"22","num_nodes":"9","size_leaf_vector":"1"}},{"base_weights":[8.8660704E-4,-6.920205E-2,7.097258E-2,-4.5928393E-2,3.5675257E-3,4.7444526E-2,-1.1621858E-2],"categories":[],"categories_nodes":[],"categories_segments":[],"categories_sizes":[],"default_left":[0,0,0,0,0,0,0],"id":66,"left_children":[1,3,5,-1,-1,-1,-1],"loss_changes":[3.8943775E-2,2.8831102E-2,4.397987E-2,0E0,0E0,0E0,0E0],"parents":[2147483647,0,0,1,1,2,2],"right_children":[2,4,6,-1,-1,-1,-1],"split_conditions":[1E0,-3.507125E-1,1E0,-4.5928393E-2,3.5675257E-3,4.7444526E-2,-1.1621858E-2],"split_indices":[9,1,16,0,0,0,0],"split_type":[0,0,0,0,0,0,0],"sum_hessian":[5.9280787E0,2.9702883E0,2.9577906E0,1.023546E0,1.9467423E0,1.4021637E0,1.5556269E0],"tree_param":{"num_deleted":"0","num_feature":"22","num_nodes":"7","size_leaf_vector":"1"}},{"base_weights":[-3.2919747E-4,2.8069962E-2,-4.9313873E-2,-5.507111E-2,3.7700627E-2,-2.7417058E-2,5.9474174E-2],"categories":[],"categories_nodes":[],"categories_segments":[],"categories_sizes":[],"default_left":[0,0,0,0,0,0,0],"id":67,"left_children":[1,-1,3,-1,5,-1,-1],"loss_changes":[3.6327314E-2,0E0,6.750485E-2,0E0,1.0052554E-1,0E0,0E0],"parents":[2147483647,0,0,2,2,4,4],"right_children":[2,-1,4,-1,6,-1,-1],"split_conditions":[-4.1851044E-1,2.8069962E-2,3.5812134E-1,-5.507111E-2,3.649233E-1,-2.7417058E-2,5.9474174E-2],"split_indices":[0,0,0,0,3,0,0],"split_type":[0,0,0,0,0,0,0],"sum_hessian":[5.894993E0,1.7089988E0,4.1859937E0,1.2097669E0,2.976227E0,1.8884976E0,1.0877295E0],"tree_param":{"num_deleted":"0","num_feature":"22","num_nodes":"7","size_leaf_vector":"1"}},{"base_weights":[4.7806898E-4,-3.6651164E-2,4.4894636E-2,-2.2780802E-2,9.611148E-2,1.8794808E-1,-2.833029E-2,8.380668E-2,4.324463E-3],"categories":[],"categories_nodes":[],"categories_segments":[],"categories_sizes":[],"default_left":[0,0,0,0,0,0,0,0,0],"id":68,"left_children":[1,-1,3,-1,5,7,-1,-1,-1],"loss_changes":[4.286622E-2,0E0,4.2999454E-2,0E0,9.637059E-2,4.936771E-2,0E0,0E0,0E0],"parents":[2147483647,0,0,2,2,4,4,5,5],"right_children":[2,-1,4,-1,6,8,-1,-1,-1],"split_conditions":[-9.732474E-1,-3.6651164E-2,-3.847174E-1,-2.2780802E-2,9.128583E-1,2.3069647E-1,-2.833029E-2,8.380668E-2,4.324463E-3],"split_indices":[0,0,2,0,0,3,0,0,0],"split_type":[0,0,0,0,0,0,0,0,0],"sum_hessian":[5.8619595E0,1.0930713E0,4.7688885E0,1.2759748E0,3.4929135E0,2.366145E0,1.1267686E0,1.1503794E0,1.2157656E0],"tree_param":{"num_deleted":"0","num_feature":"22","num_nodes":"9","size_leaf_vector":"1"}},{"base_weights":[5.675984E-4,3.564305E-2,-4.2992912E-2,-4.4716083E-2,4.5247626E-2,-1.3997712E-2,3.809014E-2],"categories":[],"categories_nodes":[],"categories_segments":[],"categories_sizes":[],"default_left":[0,0,0,0,0,0,0],"id":69,"left_children":[1,-1,3,-1,5,-1,-1],"loss_changes":[4.0191617E-2,0E0,6.020155E-2,0E0,3.5102945E-2,0E0,0E0],"parents":[2147483647,0,0,2,2,4,4],"right_children":[2,-1,4,-1,6,-1,-1],"split_conditions":[-7.9942E-1,3.564305E-2,-1.2697397E-1,-4.4716083E-2,3.649233E-1,-1.3997712E-2,3.809014E-2],"split_indices":[2,0,1,0,3,0,0],"split_type":[0,0,0,0,0,0,0],"sum_hessian":[5.8114195E0,1.0994772E0,4.7119427E0,1.8269122E0,2.8850303E0,1.5598093E0,1.3252211E0],"tree_param":{"num_deleted":"0","num_feature":"22","num_nodes":"7","size_leaf_vector":"1"}},{"base_weights":[2.5745404E-3,4.6644546E-2,-3.5381537E-2,-3.93719E-2,5.1794548E-2,-4.4015817E-2,2.7594237E-2],"categories":[],"categories_nodes":[],"categories_segments":[],"categories_sizes":[],"default_left":[0,0,0,0,0,0,0],"id":70,"left_children":[1,3,-1,5,-1,-1,-1],"loss_changes":[4.1574933E-2,6.846916E-2,0E0,7.265963E-2,0E0,0E0,0E0],"parents":[2147483647,0,0,1,1,3,3],"right_children":[2,4,-1,6,-1,-1,-1],"split_conditions":[9.018306E-1,3.649233E-1,-3.5381537E-2,1E0,5.1794548E-2,-4.4015817E-2,2.7594237E-2],"split_indices":[3,3,0,21,0,0,0],"split_type":[0,0,0,0,0,0,0],"sum_hessian":[5.792259E0,4.690101E0,1.1021578E0,3.1959345E0,1.4941667E0,1.6942924E0,1.501642E0],"tree_param":{"num_deleted":"0","num_feature":"22","num_nodes":"7","size_leaf_vector":"1"}},{"base_weights":[1.7918289E-3,-5.2234557E-2,2.5918512E-2,6.1520405E-2,-5.5287626E-2,4.81568E-2,-1.7562434E-2],"categories":[],"categories_nodes":[],"categories_segments":[],"categories_sizes":[],"default_left":[0,0,0,0,0,0,0],"id":71,"left_children":[1,3,-1,5,-1,-1,-1],"loss_changes":[3.537233E-2,8.2595445E-2,0E0,4.8599366E-2,0E0,0E0,0E0],"parents":[2147483647,0,0,1,1,3,3],"right_children":[2,4,-1,6,-1,-1,-1],"split_conditions":[3.4940407E-1,4.5440787E-1,2.5918512E-2,1E0,-5.5287626E-2,4.81568E-2,-1.7562434E-2],"split_indices":[5,3,0,14,0,0,0],"split_type":[0,0,0,0,0,0,0],"sum_hessian":[5.7514424E0,3.7434943E0,2.007948E0,2.2980676E0,1.4454267E0,1.0747968E0,1.2232707E0],"tree_param":{"num_deleted":"0","num_feature":"22","num_nodes":"7","size_leaf_vector":"1"}},{"base_weights":[1.3723738E-3,2.791627E-2,-4.681027E-2,-1.3429159E-1,2.247702E-2,-8.9845814E-2,2.364847E-2],"categories":[],"categories_nodes":[],"categories_segments":[],"categories_sizes":[],"default_left":[0,0,0,0,0,0,0],"id":72,"left_children":[1,-1,3,5,-1,-1,-1],"loss_changes":[3.4007672E-2,0E0,6.400428E-2,1.399792E-1,0E0,0E0,0E0],"parents":[2147483647,0,0,2,2,3,3],"right_children":[2,-1,4,6,-1,-1,-1],"split_conditions":[-4.1851044E-1,2.791627E-2,3.4940407E-1,-1.0196562E-1,2.247702E-2,-8.9845814E-2,2.364847E-2],"split_indices":[0,0,5,2,0,0,0],"split_type":[0,0,0,0,0,0,0],"sum_hessian":[5.7123837E0,1.6470668E0,4.065317E0,2.3054183E0,1.7598989E0,1.0704436E0,1.2349746E0],"tree_param":{"num_deleted":"0","num_feature":"22","num_nodes":"7","size_leaf_vector":"1"}},{"base_weights":[-1.6934329E-3,-3.5098735E-2,4.0756047E-2,1.06045E-1,-1.651073E-2,9.098843E-2,-2.5938334E-2],"categories":[],"categories_nodes":[],"categories_segments":[],"categories_sizes":[],"default_left":[0,0,0,0,0,0,0],"id":73,"left_children":[1,-1,3,5,-1,-1,-1],"loss_changes":[3.737393E-2,0E0,4.09265E-2,1.6589312E-1,0E0,0E0,0E0],"parents":[2147483647,0,0,2,2,3,3],"right_children":[2,-1,4,6,-1,-1,-1],"split_conditions":[-9.732474E-1,-3.5098735E-2,1E0,-1.773661E-1,-1.651073E-2,9.098843E-2,-2.5938334E-2],"split_indices":[0,0,13,2,0,0,0],"split_type":[0,0,0,0,0,0,0],"sum_hessian":[5.6616573E0,1.0509427E0,4.6107144E0,2.6782558E0,1.9324585E0,1.0385783E0,1.6396776E0],"tree_param":{"num_deleted":"0","num_feature":"22","num_nodes":"7","size_leaf_vector":"1"}},{"base_weights":[1.0512323E-3,-7.001539E-2,7.1887314E-2,6.518126E-3,-4.725333E-2,4.0805694E-2,-1.4399571E-2],"categories":[],"categories_nodes":[],"categories_segments":[],"categories_sizes":[],"default_left":[0,0,0,0,0,0,0],"id":74,"left_children":[1,3,5,-1,-1,-1,-1],"loss_changes":[3.8322754E-2,3.3986457E-2,3.5784867E-2,0E0,0E0,0E0,0E0],"parents":[2147483647,0,0,1,1,2,2],"right_children":[2,4,6,-1,-1,-1,-1],"split_conditions":[1E0,4.3237236E-1,1.9963628E-1,6.518126E-3,-4.725333E-2,4.0805694E-2,-1.4399571E-2],"split_indices":[9,1,2,0,0,0,0],"split_type":[0,0,0,0,0,0,0],"sum_hessian":[5.612832E0,2.80764E0,2.8051922E0,1.7374927E0,1.0701473E0,1.7398876E0,1.0653045E0],"tree_param":{"num_deleted":"0","num_feature":"22","num_nodes":"7","size_leaf_vector":"1"}},{"base_weights":[-1.4520885E-3,-3.0955797E-2,4.5933504E-2,5.578037E-2,-3.6014963E-2,-4.2767856E-2,2.0030823E-2],"categories":[],"categories_nodes":[],"categories_segments":[],"categories_sizes":[],"default_left":[0,0,0,0,0,0,0],"id":75,"left_children":[1,-1,3,-1,5,-1,-1],"loss_changes":[3.652076E-2,0E0,6.623651E-2,0E0,5.4541368E-2,0E0,0E0],"parents":[2147483647,0,0,2,2,4,4],"right_children":[2,-1,4,-1,6,-1,-1],"split_conditions":[-7.0516944E-1,-3.0955797E-2,-1.9621621E-1,5.578037E-2,4.446878E-1,-4.2767856E-2,2.0030823E-2],"split_indices":[2,0,2,0,2,0,0],"split_type":[0,0,0,0,0,0,0],"sum_hessian":[5.592596E0,1.4029559E0,4.18964E0,1.0783916E0,3.1112485E0,1.337668E0,1.7735806E0],"tree_param":{"num_deleted":"0","num_feature":"22","num_nodes":"7","size_leaf_vector":"1"}},{"base_weights":[-7.067945E-4,-3.192621E-2,3.820157E-2,-2.5647793E-2,9.23301E-2,1.7412889E-1,-2.3433074E-2,8.100383E-2,1.0396683E-4],"categories":[],"categories_nodes":[],"categories_segments":[],"categories_sizes":[],"default_left":[0,0,0,0,0,0,0,0,0],"id":76,"left_children":[1,-1,3,-1,5,7,-1,-1,-1],"loss_changes":[3.1045424E-2,0E0,4.492288E-2,0E0,7.393953E-2,5.3795084E-2,0E0,0E0,0E0],"parents":[2147483647,0,0,2,2,4,4,5,5],"right_children":[2,-1,4,-1,6,8,-1,-1,-1],"split_conditions":[-9.732474E-1,-3.192621E-2,-3.847174E-1,-2.5647793E-2,9.128583E-1,2.3069647E-1,-2.3433074E-2,8.100383E-2,1.0396683E-4],"split_indices":[0,0,2,0,0,3,0,0,0],"split_type":[0,0,0,0,0,0,0,0,0],"sum_hessian":[5.5594373E0,1.0288614E0,4.5305758E0,1.2027105E0,3.3278651E0,2.2340465E0,1.0938187E0,1.0828475E0,1.151199E0],"tree_param":{"num_deleted":"0","num_feature":"22","num_nodes":"9","size_leaf_vector":"1"}},{"base_weights":[-3.1779287E-4,-7.1169026E-2,7.03827E-2,-4.4269115E-2,6.102041E-3,-8.480064E-3,4.5257103E-2],"categories":[],"categories_nodes":[],"categories_segments":[],"categories_sizes":[],"default_left":[0,0,0,0,0,0,0],"id":77,"left_children":[1,3,5,-1,-1,-1,-1],"loss_changes":[3.7640765E-2,2.9223444E-2,3.4141064E-2,0E0,0E0,0E0,0E0],"parents":[2147483647,0,0,1,1,2,2],"right_children":[2,4,6,-1,-1,-1,-1],"split_conditions":[1E0,2.4717395E-1,1E0,-4.4269115E-2,6.102041E-3,-8.480064E-3,4.5257103E-2],"split_indices":[9,0,21,0,0,0,0],"split_type":[0,0,0,0,0,0,0],"sum_hessian":[5.514332E0,2.7509198E0,2.763412E0,1.1654279E0,1.5854919E0,1.5329674E0,1.2304446E0],"tree_param":{"num_deleted":"0","num_feature":"22","num_nodes":"7","size_leaf_vector":"1"}},{"base_weights":[-4.539989E-4,-5.592481E-2,8.194518E-2,2.7708596E-2,-5.3193763E-2,3.8896926E-2,-1.9292017E-3],"categories":[],"categories_nodes":[],"categories_segments":[],"categories_sizes":[],"default_left":[0,0,0,0,0,0,0],"id":78,"left_children":[1,3,5,-1,-1,-1,-1],"loss_changes":[3.422136E-2,9.6834674E-2,1.3544815E-2,0E0,0E0,0E0,0E0],"parents":[2147483647,0,0,1,1,2,2],"right_children":[2,4,6,-1,-1,-1,-1],"split_conditions":[1E0,-7.3196924E-1,-8.566824E-2,2.7708596E-2,-5.3193763E-2,3.8896926E-2,-1.9292017E-3],"split_indices":[18,4,0,0,0,0,0],"split_type":[0,0,0,0,0,0,0],"sum_hessian":[5.484405E0,3.4698257E0,2.0145793E0,1.6694942E0,1.8003317E0,1.0049417E0,1.0096376E0],"tree_param":{"num_deleted":"0","num_feature":"22","num_nodes":"7","size_leaf_vector":"1"}},{"base_weights":[1.3954882E-3,-4.772585E-2,2.9392885E-2,5.573079E-2,-5.5757243E-2,5.845337E-2,-2.4544066E-2],"categories":[],"categories_nodes":[],"categories_segments":[],"categories_sizes":[],"default_left":[0,0,0,0,0,0,0],"id":79,"left_children":[1,3,-1,5,-1,-1,-1],"loss_changes":[3.532108E-2,8.1157E-2,0E0,8.486207E-2,0E0,0E0,0E0],"parents":[2147483647,0,0,1,1,3,3],"right_children":[2,4,-1,6,-1,-1,-1],"split_conditions":[2.8748253E-1,3.205031E-1,2.9392885E-2,1E0,-5.5757243E-2,5.845337E-2,-2.4544066E-2],"split_indices":[4,1,0,10,0,0,0],"split_type":[0,0,0,0,0,0,0],"sum_hessian":[5.459513E0,3.9542255E0,1.5052878E0,2.601966E0,1.3522596E0,1.0864872E0,1.5154788E0],"tree_param":{"num_deleted":"0","num_feature":"22","num_nodes":"7","size_leaf_vector":"1"}},{"base_weights":[2.1353676E-3,-2.5043044E-2,5.038072E-2,-3.5247553E-2,1.3024943E-1,6.121957E-2,-4.446326E-3],"categories":[],"categories_nodes":[],"categories_segments":[],"categories_sizes":[],"default_left":[0,0,0,0,0,0,0],"id":80,"left_children":[1,-1,3,-1,5,-1,-1],"loss_changes":[3.0708892E-2,0E0,7.868934E-2,0E0,4.2407185E-2,0E0,0E0],"parents":[2147483647,0,0,2,2,4,4],"right_children":[2,-1,4,-1,6,-1,-1],"split_conditions":[-5.185164E-1,-2.5043044E-2,2.5279153E-2,-3.5247553E-2,4.3237236E-1,6.121957E-2,-4.446326E-3],"split_indices":[1,0,0,0,1,0,0],"split_type":[0,0,0,0,0,0,0],"sum_hessian":[5.4166512E0,1.6890854E0,3.7275658E0,1.0498563E0,2.6777093E0,1.505174E0,1.1725354E0],"tree_param":{"num_deleted":"0","num_feature":"22","num_nodes":"7","size_leaf_vector":"1"}},{"base_weights":[1.0207834E-3,3.1777944E-2,-5.4912563E-2,-5.2034516E-2,3.9065834E-2,4.4095594E-2,-1.9873593E-2],"categories":[],"categories_nodes":[],"categories_segments":[],"categories_sizes":[],"default_left":[0,0,0,0,0,0,0],"id":81,"left_children":[1,-1,3,-1,5,-1,-1],"loss_changes":[4.32498E-2,0E0,6.046474E-2,0E0,4.9565166E-2,0E0,0E0],"parents":[2147483647,0,0,2,2,4,4],"right_children":[2,-1,4,-1,6,-1,-1],"split_conditions":[-4.1851044E-1,3.1777944E-2,-1.2697397E-1,-5.2034516E-2,4.3237236E-1,4.4095594E-2,-1.9873593E-2],"split_indices":[0,0,1,0,1,0,0],"split_type":[0,0,0,0,0,0,0],"sum_hessian":[5.379491E0,1.5599434E0,3.8195477E0,1.3151354E0,2.5044122E0,1.0414469E0,1.4629653E0],"tree_param":{"num_deleted":"0","num_feature":"22","num_nodes":"7","size_leaf_vector":"1"}},{"base_weights":[1.3090371E-3,-5.728181E-2,2.5951957E-2,2.055896E-2,-4.7324143E-2],"categories":[],"categories_nodes":[],"categories_segments":[],"categories_sizes":[],"default_left":[0,0,0,0,0],"id":82,"left_children":[1,3,-1,-1,-1],"loss_changes":[3.6657747E-2,6.597861E-2,0E0,0E0,0E0],"parents":[2147483647,0,0,1,1],"right_children":[2,4,-1,-1,-1],"split_conditions":[1E0,-7.3196924E-1,2.5951957E-2,